[[36mInfo[39m]: --- Building Toy Model ---
Opened binary file data/model/conv2d_weights.bin
Opened binary file data/model/conv2d_biases.bin
Opened binary file data/model/conv2d_1_weights.bin
Opened binary file data/model/conv2d_1_biases.bin
Opened binary file data/model/conv2d_2_weights.bin
Opened binary file data/model/conv2d_2_biases.bin
Opened binary file data/model/conv2d_3_weights.bin
Opened binary file data/model/conv2d_3_biases.bin
Opened binary file data/model/conv2d_4_weights.bin
Opened binary file data/model/conv2d_4_biases.bin
Opened binary file data/model/conv2d_5_weights.bin
Opened binary file data/model/conv2d_5_biases.bin
Opened binary file data/model/dense_weights.bin
Opened binary file data/model/dense_biases.bin
Opened binary file data/model/dense_1_weights.bin
Opened binary file data/model/dense_1_biases.bin
[[36mInfo[39m]: --- Running Layer Test 0---
Opened binary file data/image_0.bin
8050 8029 8076 7983 9109 9277 8880 8377 8051 7457 7471 7463 6796 7734 9245 9715 9015 8948 8809 9037 8536 9140 8765 8156 7707 7900 8871 9300 9845 3979 3052 7805 8928 5218 6099 11018 7786 5422 6120 7970 6947 6255 6282 7862 10162 10402 9032 8624 9681 9845 9476 9762 8015 270 -7138 -953 18444 18426 9389 6092 
8219 8042 8265 8402 8674 9033 9101 8286 7821 7871 7593 7778 8871 8890 9370 9137 8792 7969 7737 8094 7576 7788 8207 8098 7765 8562 9512 9959 9332 8805 5474 3507 5006 7095 6603 4938 7102 6361 7072 8634 9267 9304 10235 11459 10148 10396 9284 8900 9441 9418 8737 9009 -3328 -826 11259 19124 10285 -129 609 9144 
8415 8429 8500 8661 8782 9016 8612 8549 8704 8417 8312 8617 8575 8992 8936 8397 8172 7178 6860 7288 7907 7412 7755 7917 7760 8317 9733 10037 7930 9915 7802 3507 4992 9195 7925 4111 6023 7413 7737 8149 8780 10441 11124 11258 10721 8976 8877 8803 9583 9591 9226 9406 11581 8354 8447 10288 6396 6423 7653 7480 
8827 8752 8537 8985 9371 8640 8352 8256 8518 8798 8723 9002 8292 8305 8514 8589 8164 7339 7023 7736 7890 7801 7970 7943 7567 8249 9378 9292 8842 5763 7852 10284 8405 5160 6670 9302 6217 7352 7665 8865 8634 10147 11238 10406 10005 8770 7696 8065 9497 9623 9372 9524 8753 12504 9414 2276 2803 4816 5187 3211 
9448 9429 9278 8936 8848 8333 7607 8033 8261 8144 8418 8670 8402 7966 8250 8487 8042 8231 8452 8485 6995 7534 8267 8777 8750 8878 8891 7985 8873 6209 7211 9674 7945 4031 6604 11008 9862 9052 10237 10659 10103 10009 10189 9428 8535 8453 7869 7825 7519 6512 5115 5952 6521 3023 3682 4374 1525 1254 2862 4773 
9981 9998 9891 9406 8213 8646 8695 8720 8703 8372 8198 8260 7822 8480 8758 8332 8436 8937 9409 8946 8320 8124 8432 8729 9114 9512 8279 7209 6478 11130 9659 4815 5393 10134 9988 7038 11627 10007 9904 9873 9247 7874 7290 7401 5842 6436 7980 7837 6864 4972 3361 3843 5894 1404 -398 597 7129 9448 7748 7890 
10203 9968 9834 9352 8769 9550 10153 9741 8821 8737 8548 8202 7887 7963 8521 8663 9232 9797 9378 8739 9131 9191 9656 9950 8827 7651 7063 7112 5896 8566 9443 7533 6298 11729 14478 9908 7203 9692 9924 6743 5976 5479 5955 6005 7173 7648 7497 6647 4403 3739 4553 4622 1617 4444 6682 11412 9275 4575 6612 5994 
9681 9235 8888 8772 9648 10195 10030 9686 9008 8877 8754 9023 9772 8893 8393 8797 9782 10032 9104 8071 7883 9614 9817 9779 8554 6814 6346 8095 10482 7515 6488 9836 12992 10592 8039 9111 6942 5920 5965 5993 4380 4755 6314 6453 5465 8276 8924 6116 5669 6963 8899 7939 5425 6452 6412 7964 6343 4190 2924 1444 
8361 8455 8163 8137 9227 8989 8536 8240 8933 9186 9208 9964 10088 9695 8964 8725 8949 8587 8551 8694 9001 8536 8363 7588 8022 8397 8526 8616 10029 9543 9337 10684 11752 10258 7144 4647 5053 4621 4565 5150 5587 5810 5652 5216 4376 5455 7420 8499 9074 9993 9319 6892 5747 4544 3617 2509 1281 1822 2224 2267 
8286 8076 8119 8187 8188 8240 7943 8282 9097 9620 10027 10210 8839 9088 9346 9025 8557 8471 8103 7870 9520 8123 7570 7737 8833 9022 8755 8157 7855 7462 8661 10418 10236 7674 5562 5075 6481 5653 4771 4568 5389 5702 5591 5554 6520 6611 6738 6211 6031 5762 5115 3263 2695 3022 2760 1957 1682 1207 1764 1888 
8931 8640 8629 8497 7873 8448 8851 9223 9073 9191 9346 9498 9084 8947 9207 9068 8349 8010 8003 7770 6575 7260 7593 8391 9014 8969 8553 8153 8090 8584 9226 8726 6977 5319 5927 7700 6427 5839 5216 5974 5783 5741 5917 5488 4381 5854 6217 5085 4072 3180 2245 1811 2225 2226 2516 2015 1830 1615 922 654 
9374 8994 8893 8901 8609 9387 9606 9297 8638 8485 8372 8311 9466 8913 8365 7759 7791 7715 7633 8112 6877 7369 8087 8866 8660 7987 7761 8226 7474 8081 7317 5380 3419 4664 7387 8635 6643 5966 6666 7407 6427 5940 5575 5453 4205 4065 4598 3712 2311 988 1129 1723 2647 2392 1674 1372 1564 1229 1226 364 
8760 8555 8502 8768 9376 9347 8964 8393 8369 8423 8885 9632 9938 7655 6899 6418 7141 6725 7577 8721 9932 9551 9332 8889 7764 7779 7770 7199 4262 2473 1455 1689 3723 5682 5681 5457 7205 7136 7032 6315 5817 5737 5448 5809 6764 3976 1422 -42 -636 -639 609 392 411 1303 1593 1618 639 830 1219 1147 
8409 8367 8301 8449 9186 8668 8383 7912 8077 8269 9082 10059 10511 7625 7273 8519 6446 6217 8178 9789 9586 9815 9437 8441 7501 6354 6005 5750 5936 1810 -3 2311 5574 5762 3890 3036 6427 6412 5146 4086 4311 4167 4300 5162 4519 3670 812 -446 -149 1459 1766 774 -1598 732 1638 594 1313 1571 1356 1372 
8465 8247 8344 8623 8231 8429 8109 8103 8673 9289 9745 9818 6530 8819 8003 6529 5984 7954 9552 10153 9607 9229 9401 9131 7457 5050 3928 3769 4675 6124 6821 6255 6014 5089 4063 4184 4487 4572 3799 3630 3594 3823 4182 4981 1085 1640 1357 840 357 356 150 -127 1957 -411 -267 1294 1367 1472 821 469 
8392 8653 8616 8724 7861 8213 8456 8633 8718 8454 8210 7791 5616 6517 7304 6897 5970 8880 10896 9951 9759 10007 9140 6402 4490 4817 5845 5669 3905 7569 11257 10128 4790 2965 4319 6332 4724 2890 2710 3975 3697 3323 3648 3986 4317 1733 423 1114 607 -559 -1654 -1078 1358 1292 -382 -662 1706 731 186 -213 
8584 8525 8547 8620 8873 8681 8484 8565 8027 6809 5169 4671 8431 6792 6137 6682 8900 10617 10088 8916 7988 8260 6597 3121 3009 5344 8330 9314 8266 8254 7585 5651 4342 4803 4723 3473 2939 3089 3654 3730 3178 2266 1464 889 3212 2152 113 -1792 -1319 -339 682 1429 -1680 -1340 126 1786 767 -576 -757 271 
8300 8406 8680 8481 8481 8024 8025 7954 7963 7409 6826 6215 7709 7471 7233 8574 10359 9815 7436 6417 5385 4201 4145 6608 9546 10177 7506 4919 7613 8485 6810 3922 3738 4636 3966 2879 3116 4380 4613 4031 2977 2258 1196 166 -440 -830 -1299 -1017 -85 13 255 -28 -1064 -564 209 226 -1618 -1345 -621 572 
8138 8262 8197 8230 7708 7736 7603 7868 7904 7567 7875 8296 8149 8647 9486 9835 8925 6014 3993 3862 5497 5846 6914 10442 12506 8800 3248 2567 6682 8075 5627 3545 4427 4391 4278 4104 5177 5071 4664 3326 2462 991 -457 -1110 -2874 -1870 -934 350 596 271 -439 -994 -577 -794 -1359 -2291 -2142 -1213 166 533 
7777 7900 7819 7820 7368 7434 7470 7538 7392 7561 7661 8337 9256 9065 8994 8228 5967 3297 2945 5444 8350 10683 10852 8535 5160 2361 3376 6788 8933 6426 3980 3452 4778 4919 4566 4489 6439 5017 3297 1513 900 -868 -1629 -2108 -2150 -1391 -450 47 -207 -328 -1199 -1302 -230 -1555 -3079 -3239 -1252 118 336 -823 
7705 7521 7640 7509 7330 7131 7168 7120 7124 7271 7405 7615 8188 7141 7010 4698 3767 2721 5915 8541 10767 10293 8347 3359 972 2086 7088 10344 7771 3452 1955 3651 4025 3923 4214 5186 4308 2277 369 266 364 -770 -1437 -1830 -1529 -1158 -751 -1037 -821 -1385 -893 -340 -394 -1469 -2182 -1556 -869 -126 -797 -2247 
7446 7340 7364 7208 7345 6954 7005 7201 6688 6866 6719 6738 5697 4985 4612 3684 3177 6020 9758 11340 12061 6508 792 2032 3637 6746 8386 6853 759 0 1465 2951 3294 3147 3457 3938 1254 -642 -618 248 323 220 -53 -489 -558 -1341 -1295 -1107 -1311 -1128 -649 -466 -1960 -1709 -1047 -381 191 -119 -1321 -2067 
7376 7388 7256 6946 6828 7702 7366 6574 6665 6536 6607 5503 2463 3966 460 3277 8899 11883 11371 15361 7676 3665 1627 2371 5515 6400 3866 212 -1799 -664 1842 3889 2822 2613 2466 1400 177 -457 -148 1046 652 439 237 -455 -1197 -898 -1084 -1277 -829 -655 -895 -1521 -1662 -1902 -1556 -381 -570 -233 -346 -482 
7276 7150 6987 6892 7258 7304 6698 6452 6244 7158 6584 4783 4718 1038 1606 8134 10211 13745 11126 10115 4382 2503 2963 4716 2592 807 -1390 -3377 -1271 961 2399 2234 2465 2514 1602 27 -1376 -129 1000 270 -139 -254 -887 -861 -1159 -1244 -798 -740 -557 -810 -2011 -2700 -1847 -1132 -1139 -1552 -842 -149 328 397 
7202 7096 7402 7066 7653 6698 5576 6015 7530 7810 6608 4646 1857 2844 11626 12310 11369 9640 11510 3600 4052 3669 4737 2403 182 -2102 -3013 -2709 -1801 33 1786 2528 2055 1214 193 -606 -286 -66 -468 -859 -1298 -1198 -1251 -1025 -851 -1239 -1728 -884 -618 -1220 -1665 -2490 -2922 -1776 -730 -111 -744 -1161 -1453 -1405 
7318 7250 7456 7726 7018 6546 6835 7263 8199 7157 5477 4868 2035 8624 17256 13123 8566 5183 8895 2290 277 2171 2580 -334 -1776 -2859 -3306 -2838 -848 340 1463 1641 544 359 -154 -541 530 -262 -1291 -2004 -2069 -1925 -1704 -1402 -1584 -2259 -1990 -1232 -1282 -1532 -1877 -1876 -1331 -1176 -1142 -1652 -2263 -2854 -2899 -2710 
7604 7651 7696 7793 7516 7612 7637 8134 7134 5212 5292 6850 14130 15003 10866 3535 5621 1446 1048 2580 918 -288 -690 -1759 -2858 -3259 -2847 -1795 -407 479 388 -277 -754 -916 -645 -272 -530 -1250 -1949 -2746 -2440 -2361 -2023 -1890 -2518 -2206 -1730 -1382 -2084 -2140 -1949 -2023 -1276 -1313 -2321 -3206 -3235 -3032 -3085 -3376 
7786 7846 7942 7580 8025 8961 8545 7379 5402 4875 6179 10406 15352 13311 2161 -1366 3281 -7239 -12590 -1137 7510 3302 -1812 -2429 -3048 -2809 -1989 -1055 136 -359 -999 -1864 -2029 -1636 -1332 -799 -1250 -2484 -3041 -3067 -2814 -2545 -2069 -1922 -2007 -1550 -1082 -1706 -2627 -2764 -2669 -2210 -2748 -2389 -2694 -2544 -2436 -2846 -3643 -5195 
8381 7527 7342 7703 8795 9607 9138 7270 6000 4040 9937 13756 9118 3130 618 3414 -4161 -6492 -10205 -1979 -4300 -1157 -2471 -3424 -2478 -1243 -910 -509 -521 -763 -1925 -2547 -2929 -2161 -1767 -1492 -1778 -2337 -3107 -2764 -2614 -2433 -2060 -2205 -1626 -1694 -1688 -1979 -2487 -3056 -3444 -3173 -3177 -2640 -1786 -1947 -3142 -4102 -5188 -6314 
9482 8411 7141 7488 9010 9222 9227 7200 6784 5002 12545 16537 4386 -4933 -2220 -842 -14985 3316 13480 6665 -3074 -2056 -1775 -2836 -2114 -758 -333 -918 -1625 -1461 -1885 -2440 -3122 -2718 -2678 -2883 -4621 -3643 -3573 -3191 -2864 -1931 -2144 -2519 -1743 -2414 -2538 -2882 -3175 -3194 -2928 -2667 -2790 -2800 -2904 -3434 -5524 -6893 -5909 -6823 
9165 8732 8086 8134 8663 7699 7212 6121 3383 11086 13437 8971 3555 -5116 -4193 -932 11393 5064 8648 6971 -6833 -8149 -3651 -813 -1500 -2162 -1560 -1228 -2138 -2648 -2703 -2483 -2370 -2548 -3755 -4448 -4691 -4509 -3384 -2464 -2728 -2308 -2404 -3027 -3655 -1552 -2021 -4303 -4920 -3304 -1268 -1858 -3108 -3878 -5288 -6341 -6390 -6232 -6464 -7881 
9155 8134 8318 8301 7214 6854 4769 3812 4995 14885 14305 3835 -4782 -400 2292 2746 21862 13698 -3769 -14188 -4158 -979 -1281 -1688 -1487 -3019 -2711 -2417 -1754 -3388 -3421 -3508 -2673 -2881 -3686 -4949 -3994 -3258 -2811 -3187 -2496 -2141 -2688 -3332 -3665 -2560 -2128 -3636 -3796 -2274 -1059 -1309 -3590 -5611 -6704 -7459 -6907 -5475 -5933 -7684 
8649 7488 6971 6794 5530 5990 3544 3441 11415 15838 8609 -282 -2200 637 -3 -683 -1595 -1313 -740 -855 -2694 -2301 -1208 -965 -2705 -2638 -1637 -2310 -2892 -3344 -2984 -2610 -1963 -2107 -2407 -2268 -1582 -2723 -2936 -2677 -1963 -2178 -2327 -2771 -1789 -2612 -3601 -3481 -436 119 -1940 -3665 -4837 -5314 -5839 -5766 -6776 -7331 -6639 -5186 
7257 5918 5645 5219 5631 5450 3123 6061 14353 12321 876 -4139 -245 3584 -638 -2541 -4163 -3791 -2802 -1988 -829 -804 -901 -1729 -2925 -2092 -2275 -3524 -3750 -2479 -1929 -1321 -384 -94 447 622 937 -951 -2580 -2069 -1129 -1709 -1791 -1584 -1232 -2794 -2880 -1241 -126 -1974 -4526 -5543 -4750 -4084 -4734 -5688 -6557 -6836 -5577 -3368 
5633 4206 4560 6406 7425 5021 5023 10678 13600 2976 -5697 -2665 2048 2846 -904 -2649 -3733 -2974 -2054 -1470 -2266 -1298 -2073 -2768 -2373 -1897 -3584 -4073 -2974 -656 513 643 1335 2096 1443 1379 -787 -1159 -1166 -962 -1609 -1257 -811 -757 -1499 -2763 -2337 -1412 -2546 -5568 -6772 -5564 -4110 -3389 -4681 -5944 -6801 -7182 -5539 -3097 
5001 4799 6817 8479 9527 6577 9099 14060 9473 -3825 -6072 925 4125 370 -2127 -2158 -1911 -1398 -1028 -1728 -2729 -2961 -3575 -3124 -1851 -2257 -4486 -4097 -647 647 833 1242 1152 172 -888 -2573 -5319 -2461 -787 -280 -2011 -1744 -542 85 -2345 -3290 -3246 -3816 -5771 -7589 -6752 -4138 -3243 -3932 -5415 -7364 -7642 -7704 -6630 -4268 
6295 6976 9466 9461 9887 8602 12343 10965 3011 -3461 184 2189 2788 -2363 -1930 -1493 -1320 -1413 -1853 -2333 -1772 -2132 -4651 -3261 -2274 -3145 -4239 -2394 -462 332 -978 -797 -1331 -1611 -3746 -6425 -7722 -7257 -4452 -2029 270 1431 -3207 -154 -6643 -7429 -7232 -1163 -3536 -5310 -5231 -4229 -4001 -5114 -6226 -6745 -7096 -7668 -7182 -6218 
8188 7390 10030 5110 11550 18038 15890 1559 -4259 -493 4789 100 -2877 -3907 -755 195 400 -654 -908 -1276 -1460 -2505 -4531 -4405 -3646 -6918 -791 455 -4170 -2375 -1333 -4813 -2534 -3754 -2227 -3883 -90 -8367 -12411 -10691 -2980 678 -869 -454 -10761 -14466 -2340 1001 -4518 -4388 -3339 -4191 -4224 -5102 -5837 -6278 -5920 -6102 -6348 -6430 
4572 9390 3748 9322 18841 20460 4800 4814 -214 4073 5852 275 -6188 -3895 1476 1157 391 -337 -1177 -1327 -808 -6087 -1528 -3022 -11236 -5668 -1463 -2527 195 -2969 -2844 -2023 -2156 -4553 -1286 699 1803 -4790 -13777 -15381 -5182 -8946 4374 -12529 -16883 -3322 4411 -334 -1102 -1496 -4007 -5303 -4233 -4034 -4058 -3197 -3992 -4945 -5910 -6614 
10953 -5141 8232 35600 10291 2400 3166 -3133 3591 7524 2200 -2015 -947 -1577 -305 -1080 -1459 -1630 -1423 -2246 -4767 287 -3051 -4171 1065 -7097 -7548 293 -2283 -3706 -4199 -3465 -2069 -2244 -1050 3912 -3367 -5982 -11566 -3241 -7804 -10122 -12849 -16749 -5825 -997 9259 579 -3716 -2589 -3073 -4311 -6480 -3475 -2607 -2875 -3034 -4422 -5519 -6459 
-1947 19784 25988 13571 11878 2133 -10798 942 5511 6534 211 -2730 232 -965 -2982 -3550 -2096 -2184 -2272 -3268 -5005 -4725 -2110 -1483 446 1301 -4751 -9240 -4948 -961 -3755 1359 -7626 -2761 -1653 6963 -2507 -4062 -5476 -1622 -4911 -647 -18012 -8747 -904 4254 -4376 -8328 -497 -2130 -1845 -1549 -3605 -4702 -3264 -2024 -3067 -3452 -4164 -4548 
73 15961 30248 -3117 -417 2084 13950 7949 11938 5233 -2820 -3617 -2116 -815 -2098 -2739 -3315 -4735 -5483 -5445 -2080 -5637 1554 5768 -2694 396 2619 -11341 -18427 -8822 -2631 -1376 59 -124 -4915 -5972 -3660 2318 12756 3716 -6704 -13737 -10107 2525 2296 -1654 -5940 1021 848 -1807 -3051 -4319 -3135 -2615 -2578 -2720 -2675 -2980 -3213 -3440 
23584 5797 -12506 7781 6041 22363 15703 11041 7381 1286 -1870 632 -1637 -2322 -2959 -3855 -6103 -6586 -5544 -3289 -6293 4665 4737 6713 10553 -232 -4507 -1363 -4818 -17894 -11498 -6411 -782 -4522 -2814 -7339 -1500 11594 17320 2807 2857 -5822 3667 9345 3213 -3304 -8096 -7630 -4106 -63 770 -2977 -4068 -3224 -2403 -3227 -2168 -2369 -2492 -2638 
3990 4970 -4776 -2403 22916 19828 12346 9884 1315 -675 1608 3864 1629 -2795 -5313 -5264 -5063 -3594 -375 1563 2939 1693 1774 4217 4252 -205 -6732 -2375 3583 -8455 -12260 -14864 -4622 -11835 -9234 -12314 1079 6035 3879 13504 6452 9796 8176 9040 -2132 -6911 -9749 -9235 -7139 891 1716 -2095 -622 -1132 -2236 -2686 -1840 -1845 -2195 -2534 
182 -3744 5403 12534 6999 16099 16828 7750 411 997 583 2470 1453 -381 -3015 -2882 -1459 1146 3117 2696 4857 -4666 -3085 -3061 -7103 3498 12814 2080 -11636 -12450 -9122 -3831 -6896 -8514 -5853 -2359 8455 17347 11946 7526 6241 7799 8600 7043 1960 -2682 -5007 -5665 -4318 -823 -2574 -1814 -2025 -567 -2657 -2085 -2667 -2244 -1764 -2111 
18627 11123 6524 10539 22667 11856 5131 1680 -1943 -142 -985 -1429 -1442 1422 859 408 1076 1257 -504 -2624 -8391 495 -6523 -11039 -6588 -4546 3334 6398 -8005 -857 -1565 -4407 -6853 3100 6424 12026 5137 2791 13703 6501 13204 7437 10034 7400 5008 -3232 -8390 -5606 -5708 -6669 -2478 4451 2655 -625 -1432 -2833 -2413 -2414 -1901 -2236 
19871 19422 14794 17604 11901 5643 3174 -3835 -2021 -4213 -3658 -2113 -2267 -2186 -2148 -1061 986 -576 -3605 -6198 -6239 1766 -3564 -12579 -12894 -11325 -21269 -10209 13786 13365 12270 14118 6628 8188 6590 7574 7816 7053 8043 7791 7213 5930 5770 2435 8777 3210 -592 -10070 -7096 -4924 1017 1824 3943 -3039 -4117 984 -1441 -2474 -3437 -3414 
13781 15026 14607 21306 7740 3141 4449 1080 -25 -4546 -3702 -3417 1917 -3551 -5277 -3022 -4372 -7046 -9620 -10817 -2916 -15679 -12435 -13722 -18530 -10787 -6282 -6503 9428 19359 12167 5772 7582 7167 7809 6798 7415 9789 6745 6468 1253 3246 319 6648 5994 10939 4558 -4648 -9090 -3519 2764 412 -3575 -12 1241 -3889 -1416 -2065 -2939 -3341 
8020 17761 20661 15776 5204 3049 8124 8037 5316 2617 339 -983 -5184 -1501 -787 -3671 -5897 -9424 -10142 -8745 -3023 -8487 -9930 -5535 -2396 -1534 14237 24617 10014 5046 5390 6205 7236 8370 7970 7894 8232 8679 8074 6643 4183 2121 4129 8100 10630 10403 2715 614 -7813 -3626 -5298 -276 369 -2307 -1402 2803 -2598 -3204 -1836 373 
15183 19655 12619 4639 5378 10816 14041 11635 9163 6628 6099 4413 628 694 2801 3220 -2304 -3353 -2156 484 -4739 5337 2410 4667 20905 17055 7597 14218 20508 12822 4863 4099 7366 9556 8950 8669 9404 9239 6653 5921 4648 3667 5439 9088 13629 12873 7377 -316 -2581 -6606 -9859 -7386 1611 7438 4113 -3589 -2614 -2191 -515 -679 
7566 6991 5608 7433 9427 14663 15069 10886 8425 8223 8053 8694 13292 12147 9669 6504 6613 7648 8865 10679 6693 4037 13348 17704 14402 17356 10688 3103 19079 23557 9173 5552 8076 9927 8659 8516 8052 8191 7395 7910 7413 7131 8153 9122 11048 8724 9188 2101 -3702 -11796 -3311 1386 5967 -1102 -2183 268 -1046 -1207 -1918 -2264 
1912 -2979 2046 11599 14366 13646 11023 8596 7695 8319 10026 11036 11413 11181 9800 9217 9095 9318 10254 11207 12381 8669 11992 15300 9238 5075 15069 20307 8122 16573 11417 8832 9041 9114 8318 7565 7099 7863 8197 10037 9872 8979 7930 7748 3394 7853 11141 2916 7734 -1320 -1280 -6837 -3272 550 2854 -73 328 -1149 -2980 -3338 
6778 4869 4302 4031 10192 11916 10252 7629 7556 9422 11653 11911 9022 8855 9409 9968 9912 9951 9984 10686 10172 14103 9795 7847 11448 1564 4965 17286 14835 11663 14470 11378 11722 7505 6920 7297 7615 8866 8658 9618 9878 8678 7303 6332 7520 6620 9699 14059 193 1003 -1411 4370 -2538 -1087 1177 3876 1122 -514 -1446 -1945 
9951 10096 7033 3756 9226 8201 7850 12269 10910 10643 11116 10175 9478 7535 7645 8380 9327 10079 10800 11406 9829 10365 12669 8865 9312 13749 6791 -6113 18483 13124 11671 11484 14194 10356 6318 7152 7975 8314 9322 10476 10423 9797 9440 8118 8108 11451 5134 9540 3418 12375 2163 -1238 -1601 -1754 1855 2268 1278 -633 -592 -1821 
17115 536 13043 20400 5727 3609 12955 7098 11979 11807 9425 7985 10740 8884 8262 9282 10447 10338 10407 10344 9584 7846 7858 13859 12898 12453 11734 5096 3932 11016 11864 9749 17950 5590 5430 5905 6264 8556 10078 11499 12031 11538 10938 10535 4697 6712 11146 10921 11914 5329 2933 5600 5868 -891 -4456 3086 3388 -1418 -2508 -1081 
-3102 30986 22733 121 23050 17172 1131 10239 8008 11369 11686 9459 7789 10196 11101 11248 11281 10232 9015 8741 10463 11407 8293 9615 10159 10590 7565 13899 5347 10649 10267 15673 13997 5322 3690 5744 7731 8603 11376 11338 11454 11688 11000 10262 10824 8102 8732 5008 15123 12688 13795 7048 1821 -972 -3033 -2578 1600 3025 -1895 -4251 
11093 10957 21168 36874 -6056 10712 20144 5305 4303 7722 10392 12232 10315 11618 12239 12153 10083 9063 9356 9311 9552 9985 9063 8829 9993 11511 12909 13207 4276 9478 17230 17724 9841 3508 4056 6904 9073 9655 11331 11448 10886 10025 9988 10155 10465 10013 12018 15096 15415 15102 15090 12522 -2942 -446 16 -2035 -5820 1630 4116 1688 
17087 21383 9297 9583 17855 9638 -854 7815 7150 8697 8288 9610 14501 14633 13310 11271 9387 8745 8857 9574 8409 9378 9952 10648 10831 12404 13885 14106 9614 13640 16215 12937 4741 3367 6957 8958 8326 10521 11866 11262 10207 9511 8750 9294 10169 10711 13584 15944 15294 14070 13392 8334 4990 1580 926 -1847 -6074 -3945 3188 8873 
12653 7076 14524 -3730 15567 4639 5749 3299 10690 9752 7606 8595 13482 15004 13093 10090 8868 8455 8980 9606 10611 10708 9888 9335 9765 10873 12474 12536 11332 14030 13026 8593 5288 7988 9635 9229 8542 11034 12314 11102 9691 8297 8162 8561 9944 10812 13550 14462 13675 12786 11160 6708 13620 6001 240 -3173 -3436 -6372 -372 8481 
5925 4181 4143 7012 6115 10414 11897 6594 10171 7656 8469 10778 10581 11666 11221 10094 8375 8369 9271 9713 11341 11039 9532 8392 9100 10553 11423 11022 10396 11967 11068 8326 7742 9469 9429 8256 11034 13339 12643 10668 9237 7412 7039 8386 10707 10498 11428 11809 12788 13009 11557 9416 13292 10591 2804 -4747 -4012 -4120 -3441 -1299 
-10892 -11285 -11148 -10979 -10995 -10795 -10597 -11144 -11625 -11376 -11751 -12154 -11533 -11654 -11019 -10470 -11231 -11690 -11576 -11000 -10258 -10877 -10113 -9734 -11474 -11519 -10303 -10030 -11163 -12441 -13153 -14057 -14694 -14671 -10613 -9112 -12609 -12588 -10126 -7908 -9306 -10387 -11307 -10871 -11532 -12852 -12851 -12803 -11535 -11091 -10715 -9534 -8926 -17695 -16007 -6307 -5098 -11961 -11872 -10607 
-11021 -11246 -11163 -11033 -11081 -10826 -10533 -11262 -11589 -11461 -11919 -12074 -11729 -12212 -11772 -10797 -10807 -11404 -11490 -11005 -10465 -10541 -10186 -9513 -10339 -10349 -9453 -9209 -9772 -10908 -10740 -12317 -11741 -10911 -11427 -13055 -14846 -12959 -14201 -13438 -12121 -11150 -10762 -10277 -9970 -10276 -8985 -8555 -9394 -9327 -9074 -8494 -11533 -13023 -11553 -8489 -16116 -17413 -13389 -11631 
-10770 -10961 -11045 -10765 -10846 -11306 -11120 -10968 -11670 -11018 -11337 -11443 -11304 -11981 -11769 -11183 -11352 -11935 -11956 -11900 -12334 -12233 -12304 -11349 -10889 -10694 -10231 -9710 -8667 -9859 -9578 -9369 -10495 -11092 -11293 -11869 -12945 -10194 -10654 -12778 -11104 -10124 -9619 -10274 -10670 -11131 -9575 -8584 -9104 -9563 -8440 -8233 -10544 -10472 -6896 -14767 -14976 -14648 -14101 -10798 
-10472 -10612 -10739 -10731 -11351 -11657 -11875 -11168 -10916 -10657 -10554 -10916 -10881 -11344 -11410 -10886 -11404 -11657 -11450 -11627 -12406 -11931 -12060 -12598 -11509 -11423 -11607 -11217 -10227 -9758 -8753 -7148 -11047 -13815 -10138 -7651 -11169 -11136 -8455 -10319 -10874 -10362 -10211 -11342 -12048 -13399 -11955 -10175 -10736 -10750 -9209 -8875 -10044 -12433 -13188 -16175 -14228 -10506 -14383 -10782 
-9473 -9562 -10247 -10484 -11390 -11499 -11394 -11335 -11218 -10856 -10979 -11018 -11235 -11403 -11342 -11272 -10716 -9976 -9905 -10856 -11903 -10582 -10479 -10893 -10160 -10413 -12741 -13212 -11826 -10585 -10268 -11602 -11607 -11054 -9850 -10068 -10680 -10725 -11297 -10724 -12405 -12986 -12237 -11116 -9995 -11237 -9485 -10092 -13815 -15183 -12931 -11801 -14075 -13831 -10706 -12412 -12184 -10732 -17443 -15345 
-8974 -9536 -10112 -10749 -11408 -10933 -10597 -11699 -12692 -12571 -12700 -12945 -12277 -12102 -11734 -11588 -11024 -10123 -10425 -11712 -12317 -11079 -10764 -10464 -9692 -10733 -12949 -13040 -11748 -10496 -11765 -12901 -10656 -7287 -8121 -10573 -10121 -9068 -9732 -12155 -11713 -12710 -12164 -10763 -9200 -10883 -11694 -12932 -17420 -18392 -14960 -13824 -16073 -14950 -12032 -12100 -10121 -12850 -18141 -17176 
-9732 -9454 -9865 -9838 -9911 -9289 -9251 -10512 -11741 -11763 -11792 -12045 -11481 -11498 -11551 -11184 -11010 -10641 -10668 -11514 -11356 -10824 -10865 -11848 -10711 -10984 -11210 -10779 -9794 -9836 -12761 -14718 -12652 -10336 -12977 -15111 -13572 -12559 -11667 -11368 -11219 -12182 -12963 -13289 -12672 -13771 -11681 -12753 -14000 -13779 -12912 -15191 -20001 -18029 -14801 -15892 -15635 -12939 -12745 -10676 
-10223 -10011 -10025 -9852 -9223 -9463 -9427 -9582 -9912 -9722 -10140 -10449 -10927 -11774 -12248 -11132 -10082 -10011 -10358 -10217 -9152 -9374 -9611 -10714 -11634 -11901 -11786 -11293 -11342 -12475 -13513 -12371 -11097 -13324 -14919 -14905 -14953 -14756 -14499 -13269 -13083 -12931 -14042 -14961 -13287 -14934 -13952 -14422 -15046 -13156 -11762 -13929 -16763 -13866 -11721 -12369 -11707 -9757 -8297 -7479 
-10410 -10643 -10730 -10618 -10539 -10938 -10950 -9860 -9504 -9359 -9549 -9804 -10438 -11334 -11431 -11376 -11010 -10970 -10927 -11008 -10051 -10680 -10952 -9831 -9882 -10470 -11345 -12298 -12216 -12741 -12148 -10736 -11025 -13438 -14724 -14492 -14175 -14345 -16943 -16194 -14397 -14526 -15750 -15923 -14469 -16702 -16193 -14880 -14949 -12948 -11126 -11286 -11578 -9281 -7744 -8205 -7206 -6072 -5363 -4429 
-10918 -10913 -11292 -11249 -11587 -11858 -11659 -11059 -10864 -10458 -10408 -10381 -10144 -10093 -10109 -10955 -11888 -12115 -11906 -11766 -11928 -12471 -11779 -9881 -8543 -9134 -9922 -10875 -11858 -11387 -11326 -11063 -12893 -14754 -15041 -13762 -14508 -14666 -17141 -17171 -15149 -15172 -16189 -16387 -14231 -16421 -14803 -13198 -12008 -11279 -10805 -9976 -8824 -7985 -6921 -7329 -6638 -5329 -4466 -3868 
-10745 -10982 -11159 -11080 -11182 -11363 -11111 -11758 -12208 -11813 -11466 -11389 -10729 -10401 -10276 -10252 -10448 -10659 -10812 -10978 -11045 -11557 -11082 -10947 -10985 -11113 -11199 -10948 -11630 -10968 -11482 -12428 -12878 -12229 -11441 -11612 -13189 -13139 -14000 -15470 -15065 -15601 -16427 -16134 -13023 -14537 -13466 -12332 -12452 -11761 -11073 -9080 -6989 -6078 -5248 -4908 -3915 -3230 -2503 -1922 
-9968 -10214 -10399 -10478 -10154 -10043 -9945 -10679 -11448 -11239 -11468 -11387 -11146 -10950 -11172 -10577 -10087 -10721 -10840 -10949 -11125 -11447 -12033 -12257 -13143 -12557 -11553 -10684 -10962 -11312 -12718 -15314 -14560 -12068 -11133 -12485 -13665 -12277 -12565 -13564 -13830 -14155 -14799 -14010 -11314 -11764 -11989 -9031 -8175 -7511 -6919 -5802 -3997 -3739 -3746 -2185 -1198 -338 -388 -817 
-10084 -9986 -10155 -10257 -9790 -10648 -10734 -10557 -10685 -10164 -9615 -8838 -10054 -10348 -12974 -11142 -11994 -13335 -13058 -12658 -12954 -13438 -12871 -12772 -11726 -10904 -10172 -10364 -12280 -14479 -16477 -15790 -15751 -16372 -16997 -16591 -14704 -12498 -13152 -13245 -11179 -10372 -10243 -8502 -6787 -6913 -8210 -5170 -741 265 -1145 -3395 -2534 -2343 -309 -2357 -1431 -472 -67 -669 
-10492 -10561 -10795 -10954 -10785 -11395 -11337 -10699 -10276 -9656 -9271 -8629 -10909 -8910 -9858 -12083 -11409 -12442 -12529 -13247 -12548 -12968 -12086 -11638 -12778 -13960 -14211 -14232 -15605 -16456 -16723 -16830 -16968 -18858 -18924 -17220 -14386 -11978 -12420 -12028 -9012 -7456 -6637 -5076 -3933 -4200 -4310 -5070 -2239 -730 -2341 -3519 -1676 -1403 -1800 -706 -1984 -956 -875 -891 
-10517 -10713 -10981 -11146 -10933 -11452 -11254 -11233 -11578 -11503 -11536 -10594 -10289 -6068 -6101 -9254 -9489 -9397 -11247 -12683 -12553 -12399 -12637 -13671 -15632 -16177 -14942 -14190 -14587 -14742 -15944 -18370 -18155 -16529 -14570 -13813 -13914 -11474 -9810 -8453 -6755 -5486 -4231 -2678 -231 1833 1085 -1132 -2232 -943 -871 -676 -880 -2233 -2637 -1183 -292 -1836 -2772 -2981 
-10669 -10611 -10709 -10909 -10596 -10734 -10716 -10541 -11344 -11478 -12150 -12576 -11865 -7785 -7400 -8877 -7952 -7838 -10285 -12417 -11937 -13411 -13975 -15022 -13418 -11428 -12094 -14848 -16674 -15125 -13176 -15153 -14522 -11234 -8128 -8474 -10251 -7929 -5539 -4432 -3652 -2747 -2259 -1416 -80 733 782 437 156 -266 133 819 1068 -1153 -1664 -1251 -1073 -2702 -3532 -3611 
-10914 -10618 -10600 -10548 -10327 -10414 -10337 -9647 -9906 -10465 -11489 -12614 -11990 -10970 -10793 -10410 -7485 -8576 -10549 -11750 -10200 -11921 -12620 -12003 -11159 -10763 -14174 -18820 -18871 -16721 -11708 -8501 -6286 -3826 -2442 -3061 -3764 -2196 -552 -1070 -800 -685 -653 -1240 -956 -1735 -1804 -1118 -419 -949 -1381 -1273 -2170 -1088 -933 -1851 -3458 -2770 -2118 -1842 
-10891 -10504 -10539 -10321 -10507 -10407 -10259 -9876 -9661 -9889 -10114 -11096 -11217 -11530 -11215 -11090 -10558 -11487 -12622 -11717 -9663 -9782 -10189 -9486 -12160 -16653 -20519 -19733 -13824 -12045 -8433 -4996 -2957 -2369 -1287 -1457 -607 -273 583 -663 -895 -714 -1146 -1387 -1349 -1771 -1094 -692 -1045 -2101 -3183 -3940 -3941 -2797 -2928 -4359 -4256 -2803 -1657 -1770 
-10614 -9972 -10126 -9854 -10021 -9925 -10234 -10506 -10296 -9817 -9456 -9894 -10027 -10104 -10268 -11204 -13080 -14126 -13999 -12685 -10451 -10729 -10346 -10894 -14103 -18153 -18051 -13293 -6881 -6749 -5749 -2940 -3016 -3187 -1952 -1444 -318 -979 -1374 -1110 -1427 -1591 -1838 -2296 -2220 -2021 -1215 -987 -1796 -2265 -2797 -3346 -3139 -2982 -4314 -4728 -3936 -2562 -2171 -3308 
-9888 -9588 -9587 -9404 -9759 -9587 -9734 -10784 -10634 -10200 -9670 -9741 -9678 -9683 -10205 -11846 -14098 -15425 -14360 -12974 -12218 -12851 -13061 -14726 -14409 -11696 -8047 -5906 -6563 -7342 -6092 -1830 -2368 -2951 -1664 -1029 -711 -1651 -1752 -1200 -727 -1046 -1376 -2083 -2158 -2703 -2403 -2541 -2875 -2499 -2138 -1918 -2928 -3266 -4828 -4397 -3221 -2345 -2931 -4718 
-9353 -8952 -9409 -9248 -9558 -9354 -9637 -10181 -10535 -10566 -10771 -10914 -11011 -10260 -12067 -11468 -15960 -15096 -14903 -13220 -16217 -15157 -18230 -15576 -11810 -5021 -1083 -2166 -6408 -6165 -2680 -1275 -2271 -2892 -1170 -843 -1775 -2266 -1136 -374 -253 -279 -685 -1758 -2308 -3678 -3753 -3724 -4239 -3517 -3089 -3074 -3709 -3415 -3371 -4072 -3194 -2940 -3468 -4270 
-8354 -8284 -8834 -9007 -9127 -9099 -8987 -10333 -10291 -10807 -11179 -11791 -11912 -11029 -11998 -13648 -14342 -14276 -14609 -14049 -18238 -19758 -14686 -12781 -7011 -2437 -211 -635 -2072 472 1085 -287 -2951 -3044 -1746 -2307 -3854 -2698 -1851 -933 -1258 -1166 -1389 -2309 -2786 -3243 -3172 -3251 -3384 -3313 -3831 -3566 -3834 -2694 -2747 -2731 -3120 -2639 -2591 -2068 
-8134 -8080 -8748 -8709 -8558 -9398 -10151 -10856 -10654 -10002 -10484 -11957 -12610 -14121 -16469 -12446 -13049 -12423 -14334 -16727 -18125 -16825 -10137 -7021 -5250 -2779 -1776 -1395 -1728 990 394 -2086 -2944 -3200 -2764 -3795 -4740 -2992 -1567 -2724 -2282 -1734 -1448 -1766 -2057 -2321 -2523 -2329 -2879 -2818 -3887 -3990 -4141 -2702 -1194 -987 -474 -814 -1418 -1844 
-8192 -8091 -8536 -8635 -8738 -9604 -10584 -10866 -9976 -9987 -10717 -12366 -14014 -14462 -11032 -9680 -10206 -10557 -10955 -14272 -12836 -7899 -4860 -2834 -3407 -2732 -2295 -1909 -2165 -512 -1177 -2659 -2072 -2161 -2477 -3396 -3200 -1315 -1260 -2859 -2979 -2385 -2008 -1608 -2282 -2508 -3075 -2428 -2417 -2773 -3463 -4114 -3543 -2566 -1327 -1438 -1337 -945 -1239 -1295 
-8059 -8281 -8624 -8764 -9093 -10299 -10561 -10476 -10245 -10993 -11621 -12261 -10095 -9281 -6466 -12733 -16851 -13904 -9243 -11177 -9091 -2406 -729 -2055 -964 -1797 -2424 -2917 -3588 -2238 -2188 -2392 -2151 -1840 -2125 -2779 -2519 -2006 -2525 -3233 -3254 -3085 -2565 -2162 -3107 -3204 -3481 -2126 -1855 -1950 -2531 -2765 -1987 -1722 -1507 -2145 -2610 -1991 -1319 -639 
-7954 -8169 -8669 -9063 -9481 -10473 -10204 -10621 -11363 -12613 -10989 -10295 -6214 -5659 -9185 -13067 -15091 -8491 -8847 -7589 -6707 -2346 1292 -91 -846 -2061 -3310 -4181 -5262 -3591 -3407 -3561 -2509 -1902 -1612 -2374 -2445 -3022 -3416 -3923 -3362 -3424 -2716 -2721 -3950 -3124 -3269 -2885 -2392 -2075 -1874 -1797 -1024 -1380 -1484 -1522 -1572 -1078 -1021 -531 
-8211 -8208 -8772 -9271 -9452 -10082 -9979 -10851 -12770 -11836 -8588 -5970 -3752 -6674 -13656 -9738 -6838 -2691 -12566 -3279 -344 -2287 -955 1250 -975 -2074 -3196 -4290 -5073 -3460 -3530 -3089 -1771 -674 -588 -806 -1258 -1911 -2878 -3399 -3658 -3648 -3079 -3284 -4262 -3137 -2886 -3921 -3699 -3020 -2515 -1789 -1065 -1424 -908 -416 -148 -824 -1490 -2177 
-8412 -9045 -9634 -9944 -9993 -10199 -9870 -10925 -12647 -10742 -5814 -4142 -5209 -11773 -19103 -13839 -18618 -9857 -16980 1419 10243 1759 -3278 -2540 -2046 -3068 -3712 -3934 -4743 -3247 -3318 -2727 -1438 -585 -295 -528 -1161 -1951 -2979 -3399 -3443 -3538 -3092 -3328 -3846 -2605 -2406 -3770 -4033 -3589 -2820 -2345 -974 -1400 -165 122 -938 -1449 -3161 -3974 
-9139 -10147 -11329 -11225 -10367 -10459 -10048 -11116 -13990 -9332 -7167 -4419 -12059 -17035 -15819 -10703 -17847 353 3097 -8713 356 718 -1727 -4123 -3791 -3587 -4240 -5171 -4908 -2987 -2371 -2773 -2334 -1729 -1691 -2145 -2972 -2505 -2178 -3155 -2734 -2367 -2280 -2734 -3066 -2381 -2409 -2398 -2584 -3293 -3505 -2759 -1207 -995 -705 -924 -1818 -2314 -2261 -3202 
-9824 -10354 -11426 -11818 -10571 -10458 -11150 -10850 -15071 -7943 -7977 -13352 -16511 -16514 -10532 -3974 -4144 7119 -6989 -24034 -25477 -13017 -5190 -2111 -3189 -3285 -3600 -3481 -3228 -1613 -687 -1162 -1418 -1359 -1893 -2847 -2629 -1872 -1349 -1905 -2166 -1869 -2135 -2429 -2739 -2464 -1803 -2662 -2096 -1838 -1585 -2111 -1712 -1897 -2260 -2542 -1988 -1609 -2323 -3422 
-8788 -8834 -9484 -9893 -9690 -8996 -11019 -9497 -12416 -6299 -12002 -18807 -19855 -14462 -9244 -5564 -976 9852 4250 -10250 -7681 -7175 -5166 -4007 -3852 -4846 -3835 -3250 -2827 -3551 -2503 -2462 -2741 -3738 -4511 -5548 -5090 -4072 -2855 -3059 -2680 -2203 -2408 -2888 -1768 -2885 -2719 -3751 -2222 -120 289 -1599 -3587 -4725 -5129 -4683 -3523 -3498 -4850 -4046 
-8053 -7014 -7589 -7917 -7948 -7471 -10543 -8424 -7887 -5048 -14719 -21851 -16608 -9294 -8733 -8084 -1937 274 -1229 -711 5082 890 -2762 -3667 -4363 -5243 -4951 -4202 -4132 -5724 -6038 -4921 -4868 -5059 -5746 -6522 -5577 -5958 -5602 -4931 -4025 -4169 -3841 -3835 -2277 -3645 -3560 -3105 -2236 -1139 -1603 -2467 -3833 -5239 -6075 -5872 -4576 -4703 -6356 -4798 
-7937 -6998 -6714 -6911 -6750 -6848 -9837 -7479 -3623 -7946 -17134 -18021 -10054 -3973 -5371 -7580 -7981 -6162 -4219 -3140 -3744 -2641 -3935 -4078 -4079 -4051 -5273 -5742 -4935 -6142 -7463 -6876 -5807 -5732 -5021 -5369 -5882 -7150 -8169 -6930 -5989 -6273 -5919 -5083 -3182 -5280 -3569 -607 -827 -3797 -5419 -4915 -3521 -3805 -5196 -6136 -5277 -5501 -6173 -3550 
-8064 -7081 -7625 -7820 -7501 -8983 -10140 -6882 -4033 -15261 -18898 -12410 -5292 -1679 -1818 -5750 -7395 -6407 -5266 -4485 -5373 -4875 -6092 -6483 -3713 -3455 -5931 -6468 -4547 -4628 -6445 -7086 -7101 -6028 -5772 -5405 -6790 -7499 -8066 -7176 -6286 -5841 -5443 -4518 -3836 -5343 -3809 296 -1461 -5202 -7034 -5575 -3382 -3162 -5318 -6582 -5878 -5676 -5064 -2245 
-8613 -8712 -9014 -9703 -10629 -12241 -10447 -8120 -10234 -23624 -17158 -6703 -2689 -3428 -2001 -5669 -7878 -7771 -7351 -6664 -5733 -4895 -5402 -6035 -3784 -3662 -6350 -6402 -3713 -2731 -4573 -4939 -5618 -5726 -6000 -5882 -6241 -4335 -3084 -4520 -4619 -3921 -3601 -2709 -3960 -5004 -4488 -2099 -3220 -5037 -5490 -4813 -4072 -4942 -6067 -7202 -6464 -6249 -5109 -2320 
-9100 -9761 -11252 -12955 -14070 -13972 -8934 -10994 -16200 -25164 -11927 -3702 -3247 -6370 -4068 -3976 -5568 -5690 -6545 -6322 -5271 -5742 -5601 -5259 -4291 -4564 -6113 -5371 -4325 -2864 -3792 -3221 -3678 -4696 -5877 -6415 -4204 -1705 1064 -2139 -3744 -3150 -2596 -2330 -3975 -4565 -5721 -5386 -5689 -4834 -4050 -4873 -5337 -7265 -7812 -7904 -7661 -7592 -6543 -3824 
-8376 -10270 -14807 -14136 -17379 -13182 -8665 -16805 -19031 -18549 -4669 -6377 -6357 -5135 -3471 -2150 -1854 -3002 -4989 -5855 -5307 -8999 -6042 -8213 -4988 -6443 -5334 -2086 -5661 -5121 -1355 -2697 -1475 -1260 -3633 -6809 -7255 -7271 -5804 -1175 -351 -3733 -2374 -10386 -4440 -10839 -3641 -2288 -3904 -5160 -5150 -6494 -7919 -8661 -8036 -6895 -7226 -7705 -7803 -7180 
-13937 -9712 -18348 -15399 -16116 -5100 -15423 -25421 -21662 -13992 -3887 -8612 -7468 -3260 -2032 -4190 -5215 -5549 -6135 -5352 -4055 -8570 -7155 -4890 -10231 -4618 -74 -1033 -5180 -4467 -3488 -77 -4162 394 -3541 -3144 -9898 -13837 -16607 -9958 -3421 -1804 -2072 -12104 -14032 -827 3426 -1329 -3283 -5487 -7333 -7472 -7736 -7218 -8121 -5959 -6721 -7932 -8661 -8994 
-9324 -20757 -20292 -6868 -15405 -35383 -18165 -33761 -23489 -12782 -5636 -10188 -6719 -3401 -4173 -4452 -5420 -4457 -4061 -3314 -3030 -5001 -3068 -10251 -8128 -8636 -7747 926 -2684 -7883 -4130 -2524 -7727 -738 -545 4529 -4752 -14688 -22321 -19688 -13496 -4807 -5990 -15348 -5174 -3137 -5403 -8467 -8154 -5452 -5729 -6148 -8109 -7502 -6628 -7126 -6425 -6836 -7213 -7623 
-20305 -4358 -15706 -21817 -34147 -36973 -25793 -9229 -7486 -4981 -5007 -8288 -6443 -4894 -6907 -3903 -2708 -3322 -5160 -5771 -4209 -5994 -2934 -5810 -7911 -6900 -10621 -3296 2524 -3572 -8185 213 -6544 -2197 -2891 1115 -2049 -3918 -491 -14511 -23767 -21746 -23615 -21057 760 -1940 -7738 -8344 -1171 -2340 -4610 -5621 -7838 -7235 -5037 -4953 -6321 -6263 -6516 -6601 
-11704 -12044 -13988 -42826 -34796 -33704 -13841 -4017 -3744 -5379 -6444 -5734 -5251 -4312 -7356 -6002 -4206 -5873 -7930 -7655 -7726 -3439 -2311 3673 907 -2656 -13323 -17323 -10540 -4096 -657 -4170 -6733 -5698 -7632 -9295 -4406 679 6969 -5410 -24782 -20544 -27548 -14666 5768 -2392 -15335 -4028 -2023 -5583 -6885 -5909 -8556 -9436 -6433 -5703 -6349 -6416 -6506 -6836 
-11457 -13749 -34396 -31358 -25539 -18077 -9204 -6263 -9059 -10614 -8927 -4671 -4653 -3958 -5532 -8058 -8273 -7899 -6995 -4933 -4630 -288 2126 225 6926 1554 -9211 -17236 -14277 -7951 272 1688 3150 -76 -7014 -18084 -11928 -2506 12406 -200 -13410 -7927 -15883 -11592 -8707 -18146 -20898 -11547 -6835 -6012 -5219 -4140 -4899 -8053 -6749 -6570 -6052 -5943 -6055 -6317 
-10317 -28871 -32712 -27680 7824 5117 7102 16421 1257 -1059 -1706 -2625 -6871 -5615 -4962 -7015 -7945 -6674 -4998 -3246 -2684 -1656 -9022 -9390 -6255 -947 -3273 -8485 -15426 -20920 -16158 -10410 189 -3471 -8640 -17348 -5965 977 2059 2535 -8645 -7463 -6415 -7369 -3721 -9874 -13257 -10502 -4211 -882 -4109 -6102 -5827 -6729 -7579 -5638 -5599 -5228 -5350 -5516 
-15642 -31256 -33065 -14264 1498 13434 22759 21715 4508 6187 5653 1830 -5573 -7174 -6286 -6013 -5440 -5063 -5043 -4274 -5251 -249 -7272 -2562 -3196 2433 10523 5269 -5617 -13089 -23264 -21773 -5678 1721 6073 3718 5645 2659 429 1542 4397 -959 3129 -4061 -3323 -6778 -12652 -16861 -10174 -5604 -6892 -7077 -6793 -6274 -7759 -6822 -5610 -5384 -5432 -5465 
-15816 -17383 -17481 -23202 -12731 853 7950 8538 -5571 -4072 1740 -151 -1559 -4135 -5412 -6741 -4050 -3256 -4164 -3386 -1413 3947 -2064 -7030 -3366 -1375 3119 5094 -3393 7651 7878 -14616 -17280 -14129 -11479 -11880 -5779 -8772 -8438 -3510 -189 1841 -2597 -4829 -9490 -8422 -16219 -18007 -12280 -12023 -4212 -845 -1860 -5680 -3071 -5626 -5857 -5095 -4899 -6016 
-14799 -20673 -6519 -9776 -4895 -1724 1385 13 -12079 -14351 -10504 -5284 -1481 -353 -1071 -3558 -2866 -2802 -4188 -4778 -1583 -2829 -10375 -18835 -20182 -14132 -15288 -6788 11236 21400 15120 3371 -8563 -9203 -10626 -12775 -11348 -8366 -7248 -3524 -1075 -2537 465 -4477 145 -3960 -8118 -12703 -13682 -14876 -8244 -570 -4503 -5223 -8492 -3191 -5055 -4978 -6057 -6706 
-24120 -13004 12371 9718 2745 649 -1146 -4746 -14722 -20189 -17225 -13693 -8976 -7512 -8850 -5346 -5944 -7301 -8064 -7202 -213 -4926 -11665 -13066 -20692 -14242 -11194 -4307 8385 14112 1323 -2544 -1398 -3187 -4544 -6162 -5455 -3888 -3526 -3691 -1024 -3424 -6632 -5643 -2441 -4965 -10197 -15272 -13820 -11865 -4505 -4183 -9543 -8989 -2475 -5376 -3551 -5684 -6847 -6486 
-21342 -5853 16517 5460 -3063 -5465 -4726 -6474 -14895 -19261 -18338 -17963 -18276 -16127 -10298 -8521 -5243 -5334 -3541 -455 4751 -3772 -8964 -1943 -7692 -10653 -12309 -15698 -14215 -10467 -8693 -9658 -3511 -5223 -7263 -8166 -7682 -6326 -7845 -6806 -6596 -8119 -11854 -7741 -3389 -3884 -7019 -10016 -13128 -16439 -12705 -11943 -5818 -1758 -2814 -1566 -4127 -5383 -7075 -6717 
-12745 -2858 7958 -5958 -5633 -3651 -5807 -6928 -10784 -12861 -12957 -15303 -17984 -15208 -13345 -14153 -17087 -16518 -13507 -10131 -8805 -17988 -16039 -12858 -7767 -9439 -16691 -22831 -24949 -26424 -19206 -11836 -6429 -5882 -9005 -6952 -8879 -8217 -9388 -8500 -7970 -8967 -10963 -8436 -2613 -4092 -3895 -11928 -14705 -19687 -12059 -7978 -5218 -3925 -4673 -8063 -6115 -5483 -5853 -6949 
-9455 -5729 52 -7255 -2206 -1856 -7272 -10422 -9885 -6899 -5520 -7808 -11488 -9846 -8088 -8819 -11283 -11998 -11597 -9797 -9272 -15322 -13864 -9108 -9709 -7009 -12268 -15509 -9925 -14636 -26369 -21947 -9518 -6724 -11191 -6312 -8906 -9944 -9314 -8409 -6771 -7768 -10144 -9942 -6272 -9570 -7713 -5172 -6871 -16951 -16235 -12635 -6561 -4279 -9395 -7915 -5921 -4597 -5495 -6639 
-13996 -12177 -5358 -9130 -7552 -8304 -10029 -10848 -10620 -7224 -5020 -4762 -5856 -5870 -5068 -2262 -1131 -2800 -4873 -5060 -6013 -6098 -2335 -2436 -4653 -9670 -9919 -9923 -2944 -1594 -2720 -18539 -10008 -6085 -10660 -5172 -8270 -10239 -9061 -9066 -8033 -8105 -9663 -9606 -6268 -5954 2276 -4464 -10184 -15786 -16556 -11887 -11944 -6075 -4143 -6070 -4590 -4711 -5624 -5934 
-23000 -26410 -20399 -18634 -16237 -15056 -13789 -10418 -11458 -10812 -10801 -9723 -8430 -6870 -4285 -3306 -2981 -3720 -5250 -6420 -6548 -8004 -4398 -8345 -4129 -9839 -11365 -14807 -7768 -9699 16007 -147 -8125 -3090 -8025 -3956 -6835 -9891 -9245 -9885 -9535 -9365 -10376 -10307 -6275 -6404 -6522 3648 -6507 -5121 -15717 -14915 -16198 -8097 -3123 -3519 -3953 -4995 -6217 -4426 
-23432 -30340 -30382 -33621 -25511 -16775 -16938 -14761 -13861 -14416 -14226 -13817 -11519 -8878 -6181 -6177 -7087 -6760 -7552 -8960 -10936 -11776 -8611 -9711 -6649 -3561 -10428 -22263 -12944 -16562 4242 9991 -8326 -2570 -5354 -5963 -5275 -10270 -9588 -9573 -9112 -9331 -9815 -10591 -11120 -8891 -6845 -26 -4787 -5741 -8214 -17994 -16772 -12750 -3634 -2279 -3530 -3998 -4112 -5056 
-2915 -22457 -34594 -24418 -32355 -33112 -17983 -16822 -14788 -14523 -14749 -13938 -12390 -10783 -11528 -10634 -10715 -10638 -11811 -13425 -14566 -13106 -11707 -13109 -7788 -8228 -11434 -15980 -6763 -19528 787 4731 -4072 -5675 -5530 -7226 -7647 -9913 -10169 -9605 -8752 -8563 -8567 -9008 -8744 -10147 -12797 -4839 -3326 1210 -5376 -4873 -11419 -8103 -10918 -891 633 -2777 -3407 -1662 
-10056 -3171 -8992 -26355 -28888 -16772 -31006 -14620 -13577 -13629 -13866 -13992 -13659 -12923 -13959 -15003 -13571 -13594 -14215 -15442 -15977 -16274 -14492 -13690 -11777 -9038 -10122 -12111 -6986 -16671 -140 11194 -2274 -3205 -5343 -8795 -8390 -10984 -10013 -9823 -9174 -8597 -8493 -8399 -8740 -7754 -8977 -5517 -4698 -2940 -3691 -4421 -9700 -11084 -12640 -6706 1309 -1102 -3304 -1511 
-6497 -7152 -10917 -2082 -14412 -20990 -10404 -25120 -15649 -12177 -11076 -12534 -14305 -13319 -12879 -14996 -15385 -14898 -14990 -15243 -16273 -15448 -15948 -13950 -10669 -8062 -8828 -7060 -9947 -16269 -3473 4479 -9927 -7689 -6776 -10667 -9616 -11166 -11073 -10123 -9489 -8967 -9469 -8912 -7652 -8143 -6876 -4319 736 -2147 -5903 -8659 -11090 -7195 -7462 -10511 -1626 845 -2447 -1590 
-21403 -6576 -2649 -4765 1262 -3815 -2543 -6608 -13554 -11595 -9415 -11096 -14420 -14876 -14469 -14925 -16192 -15093 -14596 -13977 -13959 -13736 -13505 -14255 -12603 -10913 -8588 -7984 -10502 -10942 -3904 -4402 -14162 -9025 -6140 -11062 -11547 -12167 -12288 -10688 -9488 -8867 -9871 -10236 -8984 -9355 -5456 -2153 66 827 -2426 -8145 -9286 -1945 -3361 -11402 -7293 286 2870 2724 
-8764 -9364 -14188 -991 15038 5972 3616 10597 -2374 -10317 -12622 -12252 -13766 -15212 -16675 -16684 -15916 -14941 -13629 -12584 -11465 -11327 -12226 -14765 -15768 -14191 -11351 -8964 -9480 -5504 -2280 -5365 -9097 -3850 -5795 -13425 -14099 -13498 -11695 -10150 -9174 -9110 -10626 -11106 -9954 -9900 -5902 -4418 -3876 872 -313 -7484 -3324 -693 -5040 -11610 -11333 -6152 2678 6404 
-6965 -9681 -717 1614 11781 5310 3953 4267 2649 -10125 -14329 -13457 -13273 -13707 -14362 -15406 -15117 -14516 -12996 -11592 -9948 -10022 -11123 -12979 -14152 -14021 -12914 -11904 -11069 -6151 -5138 -8228 -7390 -5426 -10851 -16302 -14722 -11875 -10773 -9038 -9189 -9246 -11406 -11913 -11100 -10706 -8333 -7433 -7150 -2109 -1436 -4915 803 -1043 -5952 -9414 -12787 -13280 -6163 -568 
768 210 3553 4978 8620 -2583 -1943 -825 -6168 -12327 -13138 -13681 -14536 -13872 -11977 -13110 -13961 -13892 -12521 -11241 -8822 -9846 -10453 -12339 -13124 -14723 -15134 -14354 -12555 -8339 -8357 -10163 -8718 -8907 -13648 -14360 -11859 -11392 -11616 -9451 -8963 -9264 -11130 -12302 -12515 -11060 -10315 -8597 -7770 -7056 -6722 -5976 -1022 -2634 -4392 -7081 -12088 -14786 -15436 -12276 
14294 14057 14126 13502 13438 12824 12448 12872 12850 13042 12863 12631 12148 11048 10893 10819 11907 12825 13418 12648 12065 11829 11425 10191 11995 12635 10762 9978 11171 12419 12367 16220 16453 14481 10941 10425 12393 12206 11560 7924 8284 9064 10179 10283 10539 11818 13148 13754 13388 12350 13024 13563 17729 19249 11026 2753 4035 15647 18084 13551 
13951 14222 14207 13574 13659 12974 12282 12533 12671 12487 12512 12473 12221 12192 11591 11609 11702 12854 13705 13367 11967 11735 11612 10522 11922 12446 11022 9668 11277 11925 11765 14680 16641 12558 9996 12644 14015 13331 12109 12583 10434 9892 9747 10265 10961 10625 12270 12277 12284 11307 11658 11965 7321 8733 18707 9256 11105 13230 10818 13071 
13635 14069 13951 13850 13628 12884 13147 13041 12732 12482 12440 12324 12575 12924 12236 11303 11502 12582 13246 13037 11476 12379 12417 11364 11991 13085 11559 10324 11322 10568 12635 12007 11349 11704 14217 14715 12602 13659 12969 14147 12754 10775 9752 9573 10728 10551 11132 11844 11115 9984 10121 10412 7863 9244 9846 10399 17828 20351 13091 12588 
13279 13776 13937 13405 13384 13987 14284 14122 13484 12938 12764 12517 12090 12465 12771 11764 11679 12397 13172 12966 12296 13186 12418 11282 12607 13447 12594 11176 11011 12072 11162 8815 9456 15378 15451 10406 10346 11673 11831 10822 12147 10177 8937 9579 11674 12944 13157 14228 12644 11365 11223 11346 13473 9415 10553 11418 15019 17474 14038 12388 
12028 12475 12784 12989 13070 13753 13780 13227 12977 12543 12724 12568 12100 12641 12674 12182 12091 11891 11849 12152 12791 12608 12249 11253 11346 11379 12102 12854 12151 13311 9953 11143 14601 14843 10146 9869 13247 9380 9336 11063 12930 13758 13304 12338 11893 11911 10915 10462 12619 13978 14669 13969 9530 10818 14400 11055 5954 3291 4945 8147 
11836 11908 12391 12618 12643 12564 12145 11847 12844 13079 13065 13299 13428 12822 12318 12036 11731 11043 10785 11962 12352 11786 11932 12104 11165 11715 13890 14029 12239 11117 11389 11386 12300 10203 8846 10485 12351 12694 10436 12860 13692 15851 14789 12653 11494 10032 10703 10162 11551 12728 11766 9687 9752 9606 1926 1394 -573 1728 7286 6028 
12269 12339 12738 12913 12981 11281 10854 11518 12868 13181 13106 13376 13208 12578 12858 12771 12054 11286 11577 12533 13208 11911 10544 11352 11622 12657 14039 13247 10739 10104 13616 12059 9616 8419 10181 11007 12319 13041 11629 11705 12620 14049 13227 11434 10159 9469 8971 9024 10374 9438 5973 4905 5237 4507 2177 564 1103 -457 3097 4245 
13502 13280 13063 12944 12894 11688 11375 12223 12261 11789 11752 11534 11140 11824 12598 13158 12644 12280 12115 11924 12517 10738 10786 11850 12653 11714 11790 11339 10780 9403 10337 13170 10854 9294 11577 14777 15059 14200 13682 10509 10628 10577 11548 11949 12718 10040 7915 5138 3820 1663 362 1937 4036 3963 1904 2126 3344 -1559 -2100 -4756 
13539 13374 13294 12711 13025 13415 13179 12717 11478 10890 10699 10801 10881 12196 12511 12122 12072 12058 12092 12197 11958 11040 11416 11829 11184 11310 11639 12419 13528 13994 12758 10911 8925 9910 11504 11689 10427 10812 11423 11778 10150 9386 9540 9086 7617 5802 6728 5989 5736 3979 627 -332 934 -1139 -4165 -4344 -4734 -5857 -6756 -7615 
13117 13053 13140 12816 13006 13485 13081 11997 11720 11763 11728 11476 11445 11120 11274 11238 12501 12672 12537 12592 12649 13968 13033 11805 9930 10102 10895 12159 12900 13948 12689 10723 10488 11605 11866 9761 7111 9131 9982 9734 7692 6738 6494 5514 5311 5101 3391 1812 1578 1223 -1228 -3006 -2872 -5196 -7254 -7596 -8028 -8097 -8717 -8642 
13005 12907 13096 13051 12844 12669 12490 12218 12697 12504 12727 12615 12084 11177 11395 12084 12418 12443 12501 12517 12839 13376 12661 11136 10865 10739 11131 11631 11328 12440 12916 12719 12585 12076 9894 7545 5908 6478 6466 5069 4458 3745 3401 2379 2097 909 -805 -3296 -2266 -1443 -2382 -4832 -6032 -7388 -8680 -9005 -9419 -9644 -9408 -9410 
13124 13261 13244 12856 12946 11694 11795 11915 12681 12578 12568 12429 12006 12343 12110 12468 11874 11614 11633 11469 10739 10241 11836 12155 13287 13344 12762 12242 12079 11706 12395 13763 13871 10157 6603 5334 5445 3508 2643 2003 1794 1039 592 -501 -2340 -1772 -697 -2915 -3172 -2236 -3402 -6608 -8885 -9136 -9175 -9596 -11353 -11649 -11659 -11372 
13349 13360 13140 12843 13071 12326 12315 12517 12384 12066 11143 10050 8289 11471 13673 13446 12258 13945 13392 11236 10359 10725 11099 11785 12291 11917 10985 10641 11590 11283 13217 13059 9618 7053 7695 8023 5648 1629 486 1742 -59 -1477 -2741 -4709 -8278 -5710 -3283 -4287 -7216 -8928 -9370 -8418 -7454 -8686 -11536 -12104 -10900 -11798 -12073 -11897 
13314 13251 13436 12831 12903 13171 12780 12574 12509 12240 11565 10994 8651 12391 11729 11839 13893 14629 13099 11511 12059 11386 10045 9116 9386 11196 13159 11835 7594 6886 7116 7145 5469 5897 7499 6155 2556 585 -227 72 -2668 -4067 -4600 -6535 -9564 -8860 -7426 -8717 -9788 -12023 -11408 -9447 -8324 -11738 -11022 -10849 -11333 -12062 -12429 -11874 
13590 13680 13429 13426 13479 13548 13072 12171 12169 12360 12636 12951 13197 11394 10198 10579 13881 12827 11795 11467 11639 10538 9657 8534 9720 12044 13137 9748 4025 1188 -474 -46 1226 2154 1498 37 -1887 -2305 -2542 -3984 -5284 -6174 -6430 -8284 -10036 -12600 -10233 -9041 -7587 -8606 -8311 -8280 -11515 -11188 -10877 -11309 -13121 -12992 -12016 -11694 
13711 13637 13888 13566 13266 12806 12789 12262 13023 14096 15404 15719 13452 8539 9183 10953 11807 10996 11397 12315 12807 12192 11822 12268 11996 8427 3950 388 -2330 -4622 -3228 -1439 -44 -3161 -4992 -3772 -2531 -3864 -5370 -6469 -6545 -7065 -7206 -7330 -9683 -13540 -12900 -9484 -8340 -9245 -11022 -12772 -12268 -9646 -10883 -13543 -15371 -13496 -11871 -11875 
14123 13945 13747 13726 13626 13736 13790 13022 12496 12465 13501 13921 13790 11177 10218 13348 11114 10745 12775 14436 14207 12902 12769 10223 4589 -1603 -3886 -1337 725 -4853 -7475 -5160 -2572 -4348 -6247 -5465 -3825 -5998 -7924 -8389 -8485 -8554 -8777 -9256 -8746 -9190 -11004 -10364 -11739 -11942 -11606 -12166 -13042 -13153 -12591 -14591 -13470 -12923 -12806 -13306 
14253 14427 14277 14148 14010 14787 14397 13582 12864 12790 13114 12862 12779 12288 11532 12728 11457 11962 14748 14707 13005 9931 7320 2379 -2265 -3222 -487 1218 -713 -7430 -10849 -7970 -6196 -6509 -7986 -8484 -7359 -9098 -10280 -9914 -9309 -9443 -9258 -9022 -8972 -9437 -11195 -13225 -13934 -13370 -12351 -11663 -12027 -12982 -13123 -12689 -12475 -13441 -13986 -14372 
14691 14792 14853 14880 14550 14869 14909 14287 14278 13782 13336 13481 13170 12661 12927 12871 12922 13523 13864 11784 7235 4125 750 -2525 -2566 275 1332 -3237 -8913 -12214 -12153 -10444 -9446 -8591 -8967 -9822 -9960 -11110 -10896 -10099 -10152 -9929 -9314 -9574 -10009 -11258 -11912 -13966 -13623 -13380 -12542 -12260 -12326 -13255 -12857 -11733 -12860 -14437 -14930 -13947 
14805 15396 15559 15321 15098 14835 15100 14999 15107 14556 14050 14438 14770 14588 14020 13437 12835 11987 10317 6729 1932 -462 -1423 -2353 -1517 -2883 -7050 -12229 -15274 -11921 -9995 -10880 -11256 -9954 -9951 -10937 -12049 -11072 -10341 -10396 -11571 -11562 -11210 -11089 -11289 -12471 -12954 -13359 -12825 -13069 -13132 -13965 -14839 -13859 -12552 -12179 -13903 -15165 -15183 -13143 
14926 15562 15704 15691 15632 15440 15298 14627 14564 14811 14744 15369 16320 17301 14345 12969 11274 10161 5137 1804 -2828 -4006 -1566 -544 -5525 -11418 -14951 -14004 -11868 -7523 -9270 -12767 -12446 -10965 -10856 -11888 -12293 -10305 -10332 -12637 -13879 -14236 -13849 -13496 -12985 -13082 -12657 -12396 -12877 -12763 -13554 -14151 -14948 -13987 -14204 -14076 -13975 -14289 -14258 -13317 
15132 15453 15619 16029 15863 15837 14705 14539 14554 14677 15060 15674 17200 17115 11613 11236 8327 4362 -810 -1616 -7298 -4138 -3360 -5869 -9635 -13600 -14350 -12120 -9910 -10472 -12371 -14765 -13214 -12162 -12217 -12526 -12087 -11389 -11663 -13858 -14559 -15110 -14628 -14046 -13553 -13201 -13366 -13262 -12828 -12896 -13275 -13003 -12865 -13909 -14021 -14169 -13775 -14318 -14586 -14890 
14954 15459 15879 15810 15953 15237 15060 15083 14649 13909 13769 14627 16083 13526 16076 10998 2314 -2212 -2774 -6781 -3762 -5322 -8443 -12700 -11007 -10835 -10557 -10441 -12384 -14599 -15279 -14799 -13382 -13288 -12898 -11718 -11470 -11833 -13426 -14316 -14015 -14564 -14335 -13637 -13623 -13998 -14014 -14661 -14269 -13636 -13111 -12485 -13017 -13930 -13994 -13729 -14013 -14656 -15510 -16154 
15131 15574 15991 15695 15162 15225 16207 16007 14265 12320 12624 13283 11263 12421 10938 1465 -3256 -3785 -3501 -6988 -4699 -10528 -13212 -13233 -10604 -10192 -10048 -10986 -12312 -13189 -14587 -14195 -14685 -13738 -12637 -11959 -11033 -12572 -13456 -13120 -13255 -13882 -14238 -14369 -15055 -14819 -14318 -14313 -14535 -14094 -13375 -12927 -11889 -12630 -14387 -15049 -15337 -15336 -14966 -14611 
15201 15594 15787 15513 15254 15534 15633 14889 12866 11840 12991 12545 12111 5433 -4021 -7385 -2994 -2221 -7332 -8753 -10090 -11179 -16644 -12313 -11842 -11280 -10828 -11460 -12967 -14529 -15466 -15051 -14774 -13815 -13122 -12381 -12269 -13419 -13245 -12614 -12979 -13433 -13809 -14424 -15103 -14050 -13079 -13692 -14648 -14465 -14107 -13546 -13257 -14379 -14205 -13477 -12957 -13192 -13757 -14797 
15334 15424 15932 15593 15077 14744 14438 13726 12732 13095 13864 11766 5972 -5023 -8270 -3307 1004 -4459 -13504 -9054 -9780 -9734 -14013 -13403 -12011 -11894 -11784 -12399 -13329 -14143 -15059 -14033 -13335 -13276 -12910 -12693 -12225 -11901 -12171 -12057 -12757 -13339 -13667 -14095 -14726 -13967 -13762 -13894 -14086 -14084 -14078 -13960 -13741 -14142 -13721 -12742 -12588 -13474 -14868 -15737 
15576 15113 15409 15434 15185 13774 13744 13521 13277 13387 13043 7787 -973 -4364 -4799 -137 -8081 -7580 -9834 -7534 -14692 -16128 -13053 -13608 -12720 -12405 -12726 -12748 -13115 -13984 -14285 -12771 -12181 -12209 -12420 -12519 -12336 -12245 -12106 -12450 -12783 -13449 -13663 -13950 -14413 -14712 -14681 -14217 -13077 -12958 -13537 -13727 -13714 -13064 -13183 -13880 -14963 -15473 -15443 -15217 
14904 15047 15409 15430 14868 13678 12868 12772 12516 11947 10351 3825 -4394 -3851 -2242 -4104 -13957 6576 10062 -5549 -23299 -22303 -15585 -13376 -13550 -13597 -13631 -13830 -14530 -14388 -14214 -12506 -12237 -12359 -12640 -12448 -13485 -13071 -12137 -12277 -12750 -13461 -13556 -13740 -13968 -15720 -15730 -14227 -12405 -12051 -12607 -13051 -12919 -13197 -13650 -15730 -16397 -16043 -15129 -13410 
14210 14445 14962 15289 14976 13420 12537 11711 10936 11698 6692 -1037 -6917 -2196 1257 -6813 -13297 -4324 -11241 -21554 -12638 -12568 -13831 -13567 -13227 -13929 -14552 -13901 -13126 -13973 -14451 -12863 -11503 -11091 -10959 -11395 -11952 -11594 -12288 -12708 -12634 -13276 -13539 -13438 -13073 -14345 -14650 -14131 -13984 -13183 -11611 -11835 -12522 -13639 -14630 -15191 -14506 -14814 -15749 -16449 
13536 14111 14812 15010 15469 15170 12568 12060 9527 12439 1397 -2976 -1352 -1968 -2007 -7363 -11531 -29903 -21904 -11643 -6080 -11467 -13514 -13888 -13467 -14020 -14031 -13782 -12820 -14118 -14682 -13780 -12224 -11619 -10743 -9903 -9507 -11200 -11997 -12748 -12951 -13548 -13633 -13583 -13257 -13861 -14703 -13773 -13031 -12995 -13192 -13589 -13007 -12834 -13114 -13606 -13047 -14544 -17738 -18150 
13676 13457 14364 14835 16071 17667 13899 13202 11700 6587 -2729 -2400 517 -4655 -10735 -13836 -23226 -30507 -17047 7762 2614 -6380 -13024 -15281 -14541 -12815 -13301 -14555 -13479 -14056 -14028 -13778 -13150 -12328 -11165 -10235 -9850 -11889 -12857 -13211 -13606 -13957 -14302 -14012 -12771 -15133 -15323 -13518 -11614 -13586 -15388 -15389 -13734 -11415 -11252 -12439 -13672 -15804 -17725 -17537 
13732 13447 14167 15352 16753 18181 14584 13606 9457 178 -3850 -2773 -3058 -8175 -9498 -7387 -2265 -11797 -25072 -14278 -19613 -16406 -15478 -15808 -13700 -11691 -13408 -15567 -13704 -12189 -12415 -12826 -13283 -12615 -12068 -11408 -10419 -11210 -12401 -12422 -13702 -14424 -14528 -14482 -14196 -16309 -15045 -13259 -12902 -15495 -16584 -15087 -12833 -11453 -11145 -13224 -14448 -14065 -15105 -17792 
14427 14286 14838 15299 16264 16247 15528 12599 6648 -6163 -5320 2691 -6089 -12312 -9435 -6611 -6767 -9926 -13166 -15203 -16237 -15540 -15307 -16395 -14442 -12413 -12932 -14222 -14142 -12831 -12540 -12605 -14047 -14657 -14596 -14720 -15161 -13602 -12166 -12235 -13831 -14317 -14659 -14733 -14374 -15331 -16132 -16148 -15954 -13783 -12542 -12891 -13696 -14303 -13648 -13616 -14535 -15514 -15994 -18058 
14393 14273 14722 14731 14539 13191 13766 8518 287 -6532 -4 2747 -8953 -14370 -11829 -9664 -8413 -10836 -13670 -15689 -16177 -14124 -13742 -13935 -14644 -13996 -12125 -11958 -14037 -14949 -13915 -14115 -14514 -14780 -15330 -15420 -15719 -12556 -10616 -11474 -12619 -13400 -14339 -15187 -15246 -13809 -15128 -17628 -17370 -12889 -9815 -11363 -14387 -15879 -15066 -13475 -14071 -14990 -15600 -17594 
13574 13255 13471 12324 11627 10369 10115 1460 -4965 -3075 3397 -3126 -11573 -14179 -12725 -11988 -10116 -11231 -12844 -13535 -12776 -13321 -12515 -12190 -14108 -15005 -11407 -9954 -13474 -16181 -14908 -13933 -13835 -13030 -11899 -10918 -10267 -9766 -10435 -11578 -11344 -12076 -13675 -15050 -16361 -13076 -12981 -15649 -15223 -12212 -10428 -12328 -14897 -15852 -14757 -13293 -12712 -13330 -14172 -16173 
13040 12559 12372 12040 11231 9562 5826 -4506 -6044 346 2080 -10173 -12089 -10782 -10004 -10629 -11076 -11531 -12680 -12996 -13045 -15042 -12295 -10827 -13714 -15583 -11309 -8181 -12536 -14700 -13551 -12357 -12397 -10526 -8148 -5951 -4561 -9476 -11915 -12213 -10077 -10913 -12363 -14403 -16421 -13565 -11317 -12478 -12641 -12750 -13431 -14159 -14065 -15018 -13909 -12642 -12151 -12168 -12640 -14459 
12728 11207 12560 13390 11115 8784 2603 -2701 -994 -279 -4640 -12852 -7905 -5705 -10440 -12470 -15123 -14648 -14274 -13975 -12820 -14466 -11210 -8715 -11247 -12677 -10295 -10709 -11381 -10325 -11787 -11880 -11211 -12914 -11881 -8613 -3270 -2737 -2025 -5008 -10874 -14279 -8634 -11677 -10436 -6403 -3825 -15478 -17083 -15806 -14482 -13409 -11618 -12273 -13517 -13965 -14057 -12881 -12423 -12843 
11954 13807 6930 16865 4700 -10466 -10242 3067 4060 -2682 -7017 -8925 -5039 -6836 -12965 -14874 -14485 -13872 -14514 -14706 -13467 -13819 -9085 -10876 -7529 -4956 -15838 -15160 -7457 -10818 -12521 -10126 -11893 -11733 -15228 -14575 -13867 -1761 6228 10101 -363 -9622 -7661 -17997 -163 62 -15480 -21336 -13672 -13584 -13375 -11900 -12858 -13392 -13766 -14036 -14690 -13748 -12363 -12161 
9745 11267 14288 2109 -18780 -7144 5646 3107 4470 -6852 -9670 -7143 -4717 -10449 -12426 -12901 -11603 -11879 -13397 -14758 -16335 -12452 -17251 -12971 -2202 -2933 -8912 -9343 -12496 -10526 -12592 -10133 -12082 -5947 -13285 -16126 -20967 -6326 8498 14779 2461 1643 -13045 -5034 3468 -7801 -18698 -13180 -11627 -13915 -13309 -10500 -12102 -12865 -14775 -15724 -14175 -13076 -11911 -11415 
11236 15165 -4104 -28382 717 3005 5334 4221 3130 -8085 -11124 -7136 -6345 -9353 -7775 -9572 -12804 -14150 -14758 -14451 -11746 -14293 -13927 -16252 -14226 -3497 -712 -9393 -12052 -10235 -8962 -8358 -10624 -3745 -9361 -16169 -21814 -15039 1575 2629 7150 7114 1893 6262 -2099 -7255 -6223 -1034 -11008 -16611 -16961 -14291 -11298 -11722 -12390 -14375 -13662 -13528 -13527 -13069 
11900 -2803 -31637 -15468 6732 -4069 -15311 -11827 -12506 -11229 -8141 -6044 -7913 -8851 -8531 -10109 -12600 -12427 -10954 -9770 -11673 -5469 -6770 -19178 -18383 -9212 -3145 -461 35 -2340 -11749 -18573 -8856 -4799 -187 -6123 -8680 -22253 -15961 -9186 8798 15603 9502 -1393 -1133 -7165 6265 -3358 -16095 -14784 -13667 -12918 -11788 -12972 -14189 -15073 -14174 -13443 -13069 -12961 
4931 -11026 2736 -5714 -25576 -17445 -23252 -7866 -9645 -4982 -4569 -6238 -9953 -10282 -8452 -9615 -8401 -8701 -10211 -12317 -14243 -8909 -19298 -21001 -25758 -25980 -7258 5570 9374 6408 2906 -11518 -14282 -16397 -3841 2340 4387 -8632 -22801 -10309 5374 11705 6184 2532 -7035 4981 14905 -587 -7123 -10487 -14411 -15597 -11234 -9939 -12587 -13252 -13890 -13731 -13427 -13561 
2423 4415 7543 390 -19652 -27482 -10067 -8215 -3970 -2097 -7430 -10121 -9689 -10150 -7802 -7723 -6773 -9089 -12467 -16869 -16163 -17586 -10770 -7695 -15823 -24097 -13117 -6974 -9292 6203 19982 11365 4262 -911 2473 7332 10541 280 -13941 -3203 -4545 -1896 -200 4645 1320 17031 21301 10120 -1295 -13108 -18048 -16727 -13636 -12461 -12212 -12246 -13458 -13720 -13834 -13612 
7766 -950 7864 4901 -16222 -15527 -11434 -10270 -1977 -3353 -12702 -14275 -10610 -9018 -7965 -8271 -9961 -11173 -12666 -14015 -17487 -11133 -4190 -5204 -7629 -12446 -22856 -23787 -9506 13429 20951 19697 9290 7377 6480 11198 379 933 -3363 -768 8177 1567 6840 305 -1156 4197 13244 11839 3243 -11094 -12852 -10132 -13405 -13560 -12505 -11563 -12818 -13202 -13334 -13459 
-14931 -15811 5252 5647 6684 -657 -2215 4502 9078 4632 -7429 -13549 -11669 -10819 -10871 -10284 -11168 -11741 -11041 -10401 -8738 -6055 -16262 -8134 -7402 -13835 -22588 -19445 -7260 8254 10648 18348 21574 9913 -936 -3570 501 8434 10033 956 7475 -988 1721 -611 3437 5006 14090 18013 8459 -4863 -7892 -13098 -15291 -12195 -10844 -12971 -10883 -11751 -13181 -13950 
-18208 -15100 -4338 11663 11943 14277 12560 12681 17648 12340 3202 -5480 -8871 -11654 -11994 -11735 -11483 -11789 -9553 -7497 -5776 -18035 -15018 -3729 623 3552 4726 5521 -3093 -20207 -12517 4435 14509 14622 19286 17442 17788 13874 16710 11815 7942 11529 951 6547 1113 2373 9195 14862 14032 4110 -5076 -17067 -19094 -16968 -11219 -10620 -10939 -11358 -12585 -12917 
-647 2762 2519 -5719 10023 13751 10242 7227 10777 13786 9077 4207 -3180 -4574 -904 123 -3372 -3716 -1539 306 2020 -6885 1437 577 1550 10830 11420 6066 -3021 -11159 -4187 11546 13287 12134 12780 11574 13098 9535 12509 11974 11218 13511 6492 3964 -2769 -4257 -2260 10354 13284 7476 -7769 -12308 -10267 -3627 -10441 -13556 -12180 -11033 -10877 -11644 
15206 5824 -12261 -13643 9259 14191 12638 3375 5272 8564 6825 8721 3132 5966 1890 1224 2415 3879 4615 3492 3755 3054 -160 2171 -4542 -893 -8853 -13687 1662 15543 14714 16008 13776 13391 12342 14259 12844 12014 9541 10771 10238 10298 13000 3830 2236 -5657 1701 7289 11596 10714 2636 -6823 -7907 -12202 -13758 -12500 -12607 -10404 -10662 -13121 
6188 4912 -4601 5570 16459 11354 7803 5283 4837 4691 4512 6022 11336 10300 5613 2968 5039 5749 4050 1552 795 4922 481 -3058 -9980 -14911 -9142 -817 3702 12234 19787 13621 14098 12367 10240 13773 11441 10614 12378 11683 10689 10986 11109 6264 -1577 -7863 -4579 2297 14646 12964 12429 -413 -9029 -14985 -13268 -13394 -11058 -11627 -11977 -12645 
9249 12764 7565 10452 9215 4524 5962 8069 7548 5753 2419 3920 5182 3444 3299 4115 8402 9364 8173 6982 8252 11032 16817 -96 -2130 -2393 -3972 -3174 -7957 -5469 12536 19380 14486 11988 11005 13806 11649 12190 12817 10659 8558 8308 9292 7496 2777 -3121 -1563 1093 10018 14819 14391 -1353 -9320 -13502 -10594 -6739 -10459 -12157 -12687 -11591 
14612 17076 10617 8249 6194 4047 8117 9419 10807 8251 3994 2739 6348 7719 4617 5514 4500 6194 7786 8163 5558 8564 9776 -1775 867 3399 23 -6835 -14540 -12200 507 13162 13894 11805 12624 12777 11815 12633 11972 9692 7919 7637 9718 10033 6357 4963 -2403 -4953 620 10259 12790 12178 -2101 -5914 -10729 -11690 -11071 -12136 -11986 -11536 
7511 13006 13178 13906 11390 6833 8923 8051 9195 9248 7150 5959 6788 7679 6392 6014 6874 8349 9345 9698 10021 9065 6335 5373 379 -4264 -219 -5028 -5438 -18238 -6428 257 10593 10949 12512 11378 10753 11718 10707 10476 9458 8516 10480 10859 10726 1160 -7356 -4988 -5534 10829 9123 12271 4672 -2158 -11249 -12603 -12820 -11657 -10376 -11635 
-1386 3463 6270 16972 18005 9435 5859 7177 8066 9814 9588 7917 7566 7129 8747 8815 9285 8574 8406 8677 8172 8586 9936 3421 979 -5119 -6713 2664 13599 -16600 -14510 -4561 3807 10546 11899 10708 10269 11123 11023 10464 9064 8550 8893 8674 3664 7430 3629 2981 -2970 1627 2880 9684 16591 3194 -5743 -12957 -11883 -11482 -11746 -10732 
-20882 -14467 6274 5301 2952 17624 16060 5367 6285 7041 8840 9067 6440 5885 9344 11645 9972 8962 8510 8701 9607 11283 7799 4236 -937 -6053 -8267 2605 10796 6676 -7424 981 904 7165 12911 10313 10639 11954 10480 9520 8606 7332 7222 6996 9196 8610 1142 -3637 5193 862 9499 4564 9906 5443 2006 -4924 -11774 -12030 -10641 -9109 
-29315 -17736 -27120 -15118 7818 5994 7564 16784 9616 7732 8451 8666 6201 7823 8664 9805 8512 8333 8958 9799 9792 6915 7203 8763 3287 1720 3512 -3534 223 9152 2529 -3586 758 8166 13027 12305 10872 11564 9857 9313 8994 8165 7505 7266 3870 4320 8339 4981 4461 1370 654 1301 -1399 13893 10469 -1061 -10826 -12071 -11084 -9928 
-2593 -33593 -35953 -17102 -18488 155 6513 11240 15826 12002 8794 7819 7536 8153 8156 7657 8645 8307 7992 7978 8048 10138 8860 8718 7150 584 263 2233 742 10083 9262 -11722 3828 9955 12121 12098 9714 10352 9594 9882 9261 9173 8804 7555 5995 3243 4314 -562 -1815 4818 3340 7205 2063 15451 12355 5208 -436 -10538 -13826 -11424 
-10106 -16429 -11602 -31140 -5707 -8776 3206 9173 17569 11702 7434 8008 9175 6732 6832 6436 7553 7855 7653 7659 7837 8725 7882 7505 6453 4703 3696 2546 -183 6899 7433 -28 11677 15728 10615 9052 9471 9774 10414 10489 9627 9514 9114 8285 7139 5210 5614 2493 -2486 1051 6190 6629 9352 3297 10068 12148 7341 -6307 -10847 -14418 
5307 -5681 -16132 -3653 1415 -13536 -215 3066 8987 9811 10479 10107 8865 7492 6661 7959 7213 7235 7482 7570 7829 6111 7095 8553 10085 8577 7616 5672 2074 5499 6581 4620 12632 10544 5446 7815 11291 10559 10308 9956 9536 9596 9163 8936 8631 6136 6007 5297 3203 3012 3980 5953 9420 -1402 4068 17608 13274 4035 -6532 -18262 
-8729 4116 10127 -1451 -11546 5448 -4863 7044 1771 11231 14038 10892 8849 9565 7987 7549 6975 7445 7474 7581 7989 6638 7921 10014 10573 9710 8311 6800 4964 5139 4186 5154 9841 6031 5087 10463 12136 8531 8555 9120 9642 9570 9557 9416 8919 8256 6560 7794 8317 4715 2262 4736 6423 735 518 13914 14822 14712 2436 -12030 
2255 1448 8210 -1594 -4058 9827 9390 1525 4713 12952 12726 9660 10980 11032 7975 5556 7146 7366 8064 8577 9585 9132 7759 7765 7005 6532 6596 7621 7846 6352 6033 8795 11246 8925 8444 11134 7258 4959 7743 9898 9767 9712 9181 8985 9257 11491 7842 7615 9415 6120 3964 6858 5124 4018 3610 6490 11608 19339 15198 2342 
-2184 -1452 -1383 -1248 -1797 -1958 -1859 -1367 -2162 -2416 -2763 -3252 -2498 -2326 -3694 -2878 -1390 -404 -280 -587 -1442 -1458 -3432 -3604 -2602 -2100 -2914 -3191 -2189 -2165 -691 627 2014 500 -4074 -5571 -3226 -3685 -6754 -8195 -6662 -5876 -4234 -2231 -977 -288 373 627 -419 -1526 -3535 -3582 -6734 -844 -196 -8883 -12767 -2968 1932 1364 
-2481 -1620 -1278 -1009 -1190 -1249 -1386 -854 -1585 -1916 -2292 -2373 -1637 -1361 -2681 -3820 -3876 -3695 -3268 -3032 -3174 -3764 -5364 -5808 -4203 -2400 -2333 -2891 -3820 -2040 -2631 -3652 -1359 2298 202 -1980 565 509 1356 -1093 -2067 -3784 -4419 -4376 -4194 -4586 -5517 -3368 -2353 -3553 -4832 -3503 -1260 -1669 -689 6617 12346 7450 -1287 -1077 
-3141 -1963 -1542 -1116 -527 -582 -1180 -550 -745 -1320 -1747 -1891 -1804 -949 -1199 -2633 -3562 -3549 -2527 -1363 -1498 -2819 -3355 -5180 -4496 -2077 -1482 -2720 -3517 -3814 -5842 -1991 -1368 -4892 -4668 -72 -2178 -6378 -1014 -74 -1011 -2535 -3357 -3842 -3427 -4025 -6125 -3695 -924 -2090 -2972 -49 -210 -1999 -678 -577 -2955 3045 -944 -8350 
-3822 -2211 -1458 -1103 -1157 -1745 -1790 -1586 -1664 -2113 -2594 -2644 -2751 -2144 -2077 -2597 -3225 -3436 -1965 -156 -777 -1404 -773 -3191 -3726 -712 684 -1232 -2244 -4020 -4193 -1308 -1752 -6901 -7252 -2738 -4826 -7720 -6542 -2490 -707 -853 -2070 -3153 -2779 -2775 -3792 -1399 1350 -346 -1750 700 4065 2321 -2521 -5674 -13117 -4660 -2127 -5525 
-4214 -2958 -1868 -1731 -2933 -3761 -2817 -2898 -2956 -3288 -3890 -3780 -4193 -3806 -3295 -4071 -5333 -5568 -3691 -2082 -2449 -3113 -2458 -3182 -2613 370 1399 -1053 -3535 -1287 1337 -5155 -6043 -370 -57 -3736 434 2526 -2238 -1183 1691 1188 -1476 -4255 -5572 -5800 -6590 -3075 -1524 -3668 -4972 -1859 1188 -6588 -8783 -4567 -4261 -1255 474 2668 
-2708 -1435 -690 -308 -1729 -2476 -1433 -382 -379 -999 -1476 -2203 -2778 -1961 -1927 -2214 -3187 -3347 -2574 -1959 -1852 -3234 -3166 -2709 -2044 -913 676 -123 -3712 -3031 -2071 -7025 -10691 -8060 -4188 -3534 -2294 -1567 -741 -1956 -2857 -1753 -2640 -5610 -5303 -3301 -3328 134 817 -2570 -4629 -1689 -1924 -4805 -3011 -3254 -2312 3965 11237 12028 
-2179 -1870 -1643 -1626 -1778 -1877 -2249 -1249 -1548 -2298 -3028 -3480 -2906 -2073 -2066 -946 -527 -910 -1054 -594 -776 -1045 -1587 -2462 -4618 -5048 -4137 -3302 -3491 -3722 -2387 88 -1609 -4074 -645 2489 -1447 -4285 -3192 -4312 -6149 -3158 -1137 -2393 -3935 -3602 -4899 -3123 -2189 -1091 1192 6225 7551 6098 6867 8475 7788 3582 3039 3600 
-1976 -2019 -2509 -3120 -2292 -1970 -3314 -3279 -3557 -3896 -4500 -4343 -3447 -3209 -3000 -3152 -2636 -2406 -2553 -2845 -2789 -1673 -2449 -2010 -2561 -2540 -3092 -3126 -2083 -2522 -4646 -4125 -1156 553 -813 -3223 -2239 98 -1041 -3490 -3666 -2310 -272 64 248 2729 833 2605 1072 -92 83 4039 6757 4555 3979 5780 4968 2561 1552 -21 
-2939 -2144 -2293 -2474 -2576 -2306 -2766 -3087 -3557 -3548 -3580 -3284 -3658 -3150 -1867 -2176 -2818 -2980 -3220 -3434 -1939 -1701 -4173 -4364 -3578 -2398 -1355 -1180 -1574 -1946 -2783 -3372 -3628 -3889 -5448 -6876 -6041 -3788 -598 -1045 -320 1135 2342 1382 2229 4129 1764 5251 6830 5291 2539 951 272 -2210 -3247 -2745 -2771 -1946 -112 1273 
-1976 -1326 -1323 -1401 -2109 -1825 -1283 -1714 -2307 -2301 -2501 -2903 -3680 -3154 -2447 -1364 -935 -1195 -1568 -1715 -1820 -2084 -2788 -4641 -5411 -5153 -4665 -4326 -4300 -3561 -1557 -1881 -2225 -3030 -3857 -4190 -4768 -3840 1569 1418 1361 3053 4357 2504 1353 4222 2634 2701 2307 3099 1563 -352 -544 -496 -843 -408 -1143 -381 877 2144 
-779 -559 -639 -597 -1309 -677 -236 350 -346 -1167 -2233 -3143 -3298 -3636 -4705 -4324 -3427 -3338 -3611 -3400 -3724 -2569 -1322 -1303 -1955 -2732 -3517 -3744 -4049 -4019 -1676 -2549 -4233 -5601 -4871 -3433 -4380 -4082 558 2199 3062 4796 5762 3494 2685 7526 7026 6891 5104 4895 3906 1930 1062 1231 246 46 -799 -1053 -137 645 
-1808 -1424 -1369 -1576 -1651 -1016 -1611 -680 -1202 -1752 -2558 -3173 -3365 -3825 -4136 -4819 -4760 -4530 -4577 -3984 -3253 -2547 -2355 -995 -162 -903 -1647 -1760 -2345 -2249 -1118 -1076 -2589 -3372 -2644 -1944 -2322 -2016 -201 1539 2717 4174 4926 2493 2872 6610 7195 6841 5350 4862 5707 4600 2490 1359 444 -868 -1713 -2237 -959 -2 
-3231 -3093 -2912 -2811 -1781 -903 -2038 -1845 -2545 -2367 -2446 -2317 -2535 -5144 -2230 -2832 -1741 -1911 -1326 -757 -1321 -2096 -3288 -3681 -3961 -3840 -3612 -3289 -2438 -3568 -3645 415 3352 2946 1325 607 1404 916 724 89 252 1550 2254 389 -1832 -619 2383 -717 -3182 -1805 1493 2607 777 2329 1996 1386 -934 -937 410 1725 
-2753 -2676 -2363 -2363 -2156 -1609 -2363 -3002 -3175 -1654 91 1796 -1736 -4777 932 -2248 -3498 -2560 -2251 -3095 -4132 -3314 -4351 -3330 -2628 -1274 85 994 -279 -4105 -2348 1392 3543 2957 2497 3194 1378 -859 538 22 -428 920 3231 4473 1414 2178 7004 6663 3571 2755 2532 1972 3396 3750 378 1261 974 327 -233 -471 
-2941 -2356 -1867 -1803 -1698 -692 -713 -1069 -1355 -937 -296 -120 -4385 -6896 -3336 -4535 -6260 -4731 -3242 -3764 -3947 -2125 -2069 -1860 -3256 -2934 240 2736 -518 -3413 429 3280 2440 710 1690 4235 2459 -908 146 757 673 1421 3016 3434 1119 482 2039 6570 6845 4738 3934 4727 6225 4826 2304 734 1503 1276 885 664 
-3691 -2978 -2516 -2173 -1710 -909 -1280 -1188 -1553 -1539 -923 -435 -1279 -5896 -8461 -7223 -6695 -6122 -3380 -2273 -2155 -591 -1444 -3316 -5673 -3130 2017 4074 -1134 -6306 -5686 1996 5068 1528 -1579 1145 3407 2193 1002 963 2445 3701 5088 5535 6124 3127 -1837 -1311 481 1942 1941 1118 -94 2892 6056 3636 478 371 1231 2030 
-3011 -2582 -2260 -2060 -1598 -1109 -1150 -1680 -2718 -3357 -2955 -1871 -720 -2408 -4269 -4985 -5703 -3807 -2963 -3310 -3573 -2634 -4335 -3234 -1858 234 2877 4544 3653 -971 -7654 -4774 -1054 -965 -2583 -1391 110 745 571 1915 2557 3585 5182 5972 6377 5015 2121 -389 -1215 755 2493 2809 1127 1054 2863 3064 1379 -899 -356 1385 
-2455 -1995 -1244 -1522 -1402 -1409 -621 -1123 -2504 -3429 -3048 -1760 -1848 -2370 -2356 -2103 -2613 -2557 -2954 -3390 -2842 -1288 -900 2361 5321 5086 2543 255 1245 969 -5072 -4494 -2149 -1290 -2296 -1952 48 2296 1999 3498 2958 3261 3883 4118 3467 2971 1695 860 1219 2662 4092 4861 4228 3369 3545 3180 518 -1574 -313 2551 
-1956 -1272 -659 -1182 -1417 -1441 -487 -905 -2029 -2819 -2855 -2160 -1694 -1961 -2518 -1807 -2279 -3507 -3385 -1927 355 3672 5520 5273 2552 -98 -2556 -3717 -2593 -1199 -3281 -2354 -1060 -63 -111 672 3210 5253 3597 3498 2742 2155 1951 2253 1749 1621 962 1681 1815 2604 3100 3373 3543 3561 2789 2022 334 -439 776 3141 
-1733 -1046 -501 -665 -1125 -1563 -992 -835 -1896 -2524 -2580 -1881 -871 -1092 -2374 -3570 -4539 -5468 -3770 1358 5159 8411 8838 4491 -3547 -7424 -5323 -810 1813 610 -500 -1815 -724 -313 841 2251 3987 4049 3305 1652 200 -476 -176 863 1638 2201 1046 1466 1273 1274 1562 1966 2265 1292 1756 1547 1481 1445 2187 2854 
-1311 -504 -26 -549 -569 -1293 -890 -1224 -2176 -2493 -2015 -882 -217 -1304 -1384 -5969 -5970 -7655 -1525 4207 10784 7858 6393 2947 -1017 -4673 -3036 2698 4523 2257 1340 -1725 -2228 -2113 -858 2183 2366 1093 1208 34 -1196 -1486 -817 381 1815 2809 2141 3008 3006 3196 4070 4618 2750 1063 2125 2397 2231 2344 1857 1347 
-1322 -535 -237 -614 -1004 -820 -416 -1507 -2728 -2814 -2086 -610 -904 2115 -538 -6195 -5345 -5949 255 7241 11123 2039 1199 1231 1253 770 -296 -132 -1404 -3734 -3361 -3281 -2565 -1962 -170 2066 1571 501 1469 1594 1511 918 913 1546 1821 1841 1226 1595 2227 3668 4679 4510 3948 2587 2845 3552 4011 3305 2089 1486 
-1302 -601 -327 -945 -800 -194 -596 -1645 -3662 -4160 -3232 -2029 1498 3297 74 2601 2277 2155 7361 10455 7710 3513 1309 3249 4090 5792 5025 2716 -1262 -5584 -4926 -3505 -1156 4 1210 3136 2915 2492 3772 3653 2729 1241 335 522 703 681 708 570 1365 2856 3511 3452 3072 1071 720 1888 3571 4252 4113 3084 
-1169 -695 -304 -1095 -1134 -1381 -1982 -2021 -2978 -3692 -3698 -2396 -2772 -5733 -527 5527 595 -98 5849 5089 1475 1744 -928 1199 6003 6028 4639 2804 -1359 -4836 -3020 -2660 -2679 -1982 -509 1514 1776 2386 3595 5089 3798 1662 527 622 902 470 547 1034 2412 2625 3116 3175 2687 3049 4110 4915 4060 4217 3883 3386 
-1212 -822 -599 -887 -1525 -2556 -2512 -1738 -1824 -2842 -3634 -2706 -3763 1687 10315 12940 6820 5199 5224 4736 1073 -1427 21 1896 2847 3008 2332 1714 -1285 -4491 -3346 -2570 -2088 -1914 -615 667 2290 3195 3139 3840 3004 1625 1038 1207 652 -396 759 1229 2294 2213 2533 2390 3203 4812 5258 6885 6940 5817 3934 2650 
-1398 -805 -741 -886 -1829 -2528 -2852 -1404 -1826 -4355 -5297 -3275 1902 10268 9313 9191 14676 10862 5652 2286 2044 -1428 1122 3097 1934 2217 2450 2183 412 -1205 90 460 415 369 1142 2684 3858 4813 4681 4172 2156 1326 1016 1436 91 -1622 412 1490 2471 2405 2722 2602 4216 5351 5007 6124 5996 5796 4882 3666 
-1519 -1122 -883 -1166 -1706 -2098 -3072 -2023 -3011 -6169 -5013 -865 4499 8416 3293 -693 6337 2365 5733 -3683 3769 963 -2344 -1601 -156 -292 -3 687 361 -1235 108 -130 -156 -312 803 2030 2773 3444 3829 3334 1996 1308 1047 2066 529 -835 954 2490 3658 3667 3579 3254 4001 4958 5039 5513 5553 6022 5590 4445 
-1461 -1070 -905 -1220 -1557 -2116 -3851 -2929 -4692 -5915 -221 8269 9042 8393 7129 3267 -5377 -14033 13509 1669 7325 6902 3311 -223 -252 -304 -292 401 205 -1215 -148 -784 -868 -793 673 1890 2503 1972 2374 1905 2061 1563 1605 2890 2034 909 786 2643 3598 4241 4205 4191 4696 6293 7073 8178 7566 6733 4694 2760 
-1360 -1369 -1820 -2146 -1486 -1407 -3855 -4497 -5213 -6793 5809 14858 12128 2861 1131 1086 -24755 -29623 10086 2708 -6859 -1664 4040 4619 2756 3355 3240 3166 2214 1358 2130 1722 1550 2503 4705 6175 4770 3353 3589 2588 1696 1683 1735 2325 2760 2084 1096 1936 2583 3055 3600 4585 5665 8267 8972 9827 8541 5859 2760 102 
-1692 -2710 -2673 -2686 -1071 292 -2248 -5793 -8429 -5611 12928 11133 8040 -464 -4687 80 3122 5195 23833 34943 25940 7998 -526 832 2705 2267 1139 973 963 335 -645 -794 -1201 -107 1782 2978 2806 2627 2523 3109 3044 2898 2900 2740 2223 2049 1609 1469 463 1686 3285 4519 5422 7966 8098 7340 6338 6245 2376 -3199 
-2109 -3861 -3809 -2919 -967 1424 -554 -7403 -7632 -192 15294 9199 4935 221 -153 1138 6438 -5511 -4996 14016 23383 14095 5058 1868 2394 2642 1055 382 1284 2086 -86 -112 -564 420 1171 2128 2699 3239 2203 3059 3145 3080 2631 1955 1996 2900 581 371 92 2553 4150 5785 6152 7943 8089 7010 6227 6851 2195 -6330 
-1090 -2539 -3160 -2173 135 3846 1594 -6690 -2095 6515 15610 10487 4087 -852 7638 12122 11884 4736 -2728 -12317 -17788 -4783 3290 1917 1344 4266 4110 736 118 2508 1360 -221 -1597 -1173 -140 1040 2343 4495 4223 4435 3744 3448 2240 1315 2623 2886 -1617 475 4413 6474 5394 4093 4317 6775 7920 7165 5760 6633 4373 -2788 
607 -1201 -3053 -3063 -1324 1600 -612 -4026 4943 11318 9264 5166 1538 -967 5754 9364 10485 6878 2835 481 -357 355 1900 -630 -280 2981 4932 1254 -1301 125 -144 -1516 -2092 -1815 -1084 333 2083 4030 4531 5050 5567 4791 2928 2020 3705 4163 -512 577 5329 8917 8194 4592 1846 3647 6104 6834 6676 7208 5367 -47 
788 -1103 -3741 -4378 -3651 -2949 -4346 -612 8685 10497 1251 2831 1319 -1715 1790 4253 5706 5143 3960 2733 2031 3106 5271 1820 -729 1292 3724 1684 -1628 -1586 -252 498 935 1705 3073 3824 3216 2721 5356 5421 5275 4835 3492 2260 3302 4881 3141 2322 4118 6053 6056 3849 1892 2971 4740 6219 6868 7314 6248 2783 
601 -1656 -3412 -3514 -3287 -4566 -3388 4929 9205 7656 -2339 4491 5466 5606 2324 4042 5288 6099 5584 3456 1687 2690 3784 3164 486 357 1987 2015 524 -607 536 1722 3220 3751 4450 3932 962 -269 2507 3824 4024 3827 3498 2609 2373 3137 5178 3162 2013 1268 2168 3266 3443 3928 3566 4498 5415 6621 6478 4341 
-1394 -2784 -3139 -2872 -3297 -4656 228 7006 4077 4055 -756 8102 9830 11776 2304 2704 4826 6092 5702 3005 2171 1236 -432 2986 2746 -192 -465 2820 4018 1590 1631 852 1477 377 -637 -1351 -2184 -448 -767 3003 4042 5099 4974 4550 2072 255 4055 3047 1164 -1020 104 3348 5400 5730 2653 2700 4039 5878 6936 5866 
-2427 -4173 -3077 -5347 -3944 -5221 2762 6109 -2205 1260 3399 12000 8766 10435 1945 241 866 2629 3335 1972 2803 3261 -1564 5647 3812 124 -539 3798 5640 3159 1730 969 -1465 -4002 -5736 -8257 -3768 521 574 6106 9239 9980 4690 10918 -3105 366 2901 7551 5080 1081 611 3406 5850 5945 2738 2192 3160 5302 7443 7757 
-3260 -4848 -1747 -9418 6349 -3258 2899 -13 -4680 -2063 2545 14964 9762 10305 6383 6053 4899 5706 4210 548 2234 -1514 -3311 3085 -1394 1186 1621 -1286 6657 4771 1441 3260 6128 138 600 -7381 -5863 -6233 1082 5034 12485 7310 12848 6210 -20849 -929 4112 6576 1935 2961 2383 3330 5716 4149 2698 1908 4189 6751 8371 8500 
4311 -3402 -8513 15057 27703 7137 4833 16140 9132 6081 4738 13266 10595 11403 6592 6964 6364 6094 4255 208 -2874 -3281 -4982 -8058 -2181 9173 2967 1916 13151 8995 3583 4625 8199 880 7333 -3583 -6199 -16288 -4611 7650 13388 7156 12074 -12525 -7183 16994 15928 15238 6420 2395 776 4159 6091 4580 5045 3162 3594 4972 6130 6885 
-12372 -7433 18010 7549 4033 3484 -15919 -569 9327 12689 8773 8879 7707 10074 7748 6297 6177 6204 4679 1464 -118 2714 -3103 -6895 -8220 2062 5490 1793 3712 5532 837 -1586 986 928 9646 -3184 -19597 -40181 -24991 10410 17834 19712 5400 -18804 -1169 17802 19250 23274 10768 905 -4136 -1373 1241 1367 2427 3576 3754 3834 3945 3816 
-7819 11120 21456 -15477 -17039 -4549 -19841 -10563 7933 9442 5352 4579 5512 7541 10671 7501 5213 4991 2417 -1883 -1983 -5250 897 -1521 -10649 -2344 19913 14142 1028 9448 10617 2722 -4536 349 9122 3733 -11789 -35430 -33226 -7013 3964 13591 6017 -12395 -9547 11266 27586 20873 8072 3854 95 546 6160 5945 1912 2327 3635 4099 4627 4573 
15445 15879 -6285 -796 -6447 -17847 -6729 23574 30071 20592 9916 3617 3392 4452 10364 9586 5755 3077 -1173 -5573 -12185 -6078 6467 -5039 -13627 -17046 -13945 -2729 2614 2430 4628 6772 -5493 -2818 -1016 2883 -13320 -24666 -32359 -22093 -8047 -5787 6955 6701 8960 26722 40862 28204 16286 8842 672 -4327 485 6170 5667 5392 3861 4267 4442 4217 
-12088 -6890 -12773 -23242 -33960 -18223 -341 18400 31324 19656 11388 4764 7049 4589 5113 5917 5473 5271 4325 2162 1764 13382 22629 22719 15723 -6986 -18082 -8994 -2015 -2819 6325 9982 5914 5469 855 2676 -4874 32 -15892 -11409 -3130 -13636 -4782 -5925 -5214 14953 32548 27316 16813 10146 1834 -4858 -3091 989 2481 3506 4032 4188 4262 3759 
-22825 -21806 -22733 -18288 -34434 -18342 -11916 5266 19634 8920 5567 1044 8664 6090 3104 1984 3474 6835 8996 7312 5895 998 11498 14614 7798 -9909 -11187 -18006 -26881 -12628 12191 -308 -18595 -28355 -30323 -21929 -16644 -6327 -16538 -14275 -10863 -5913 -4495 -3785 -13804 -1278 15423 26514 25025 14975 5639 3886 4791 3406 5024 3609 4476 4502 4134 3544 
-11084 -33332 -21304 6502 14607 10326 1745 14880 22408 12124 4398 -1399 2887 4783 4574 1897 1360 5096 5955 2337 -6334 -3566 6292 -5848 -4270 -5795 -11728 -24415 -41080 -36201 -2119 19199 19373 11237 4344 -1153 -7544 1081 7740 2 -7068 152 -1236 -808 -6202 -249 12170 29300 29045 15806 -1609 640 -1811 -829 2519 4996 4473 5035 4967 4071 
-498 -32659 -23408 3841 20363 27443 11368 9066 14057 9623 2581 -1577 -2456 -22 1085 2597 3668 6393 6654 4877 2477 11563 3983 -1038 3179 569 -7598 -23182 -24023 -29494 -26338 -3567 7731 10065 15586 15687 9344 7434 4561 435 2482 634 -5826 -14499 -18607 -16631 -3611 14146 25780 25495 11027 6034 4596 2931 -372 206 5320 6362 4859 1239 
-6043 -36321 -30171 -5501 5846 8861 832 -3441 -3939 -4372 -3174 -1139 1838 -765 -1132 3944 10477 10985 8234 4451 8969 8801 -6778 -4210 -18730 -26796 -9281 -12574 -7045 -402 -379 -3527 -1640 -2813 -3828 -6589 -8309 -6892 -6034 -5095 -4344 -71 -3867 -12062 -21158 -17182 -7513 2762 14611 22620 19417 12406 6772 5564 6626 4420 4355 5501 3910 455 
-4431 -17470 -15890 -7546 -1832 5782 -871 -4267 -7780 -10789 -7825 -1214 -1731 -7013 -8763 -12036 -12301 -12678 -15685 -19861 -13309 -12566 -25557 -31733 -31163 -19326 2760 6889 2430 6911 18892 9059 -3136 -760 -3305 -5317 -4292 -3951 -1599 -3489 -6992 -4092 -4689 -11669 -15554 -15981 -12235 3362 17856 25735 19562 11652 3815 2076 2055 3470 2017 3436 4769 2647 
2751 -3149 -3796 711 693 3918 -1710 -2494 -4857 -8673 -7832 -2590 283 2112 4964 5980 5619 4585 2278 216 324 7294 -3899 -17587 -9533 5381 10944 18701 23579 18788 7713 1228 -2441 100 -4146 -6735 -2277 -3560 -562 -3457 -5468 -5220 -5555 -9388 -12178 -13334 -16684 -4713 5152 19136 15967 17698 10442 8133 6093 5079 4541 3805 4576 3326 
7886 5056 -918 -1147 -9895 -7722 -2202 748 -2734 -7814 -11060 -8836 -2826 -2454 -3298 1281 7723 9389 10117 9326 9299 12539 8024 6761 -439 5656 15508 9945 8073 15267 15027 6704 1532 3576 -1147 -6269 -2394 -5245 -2494 -5124 -6970 -5807 -2823 -2521 -848 -7677 -18149 -16905 -6703 13739 17446 21878 10885 9938 11431 9677 4957 4139 3203 1176 
5303 4764 -2769 518 -8706 -8320 -4130 243 -720 -4658 -10255 -12469 -8783 -6391 -4068 -4744 -5138 -3396 -678 -422 -269 -5331 -6121 -5899 -15887 -12330 95 5676 -9332 -9630 4709 15353 3735 5488 2872 -5758 -3529 -5503 -3477 -4801 -7122 -7583 -6482 -5487 -9068 -12137 -15198 -16569 -12065 -2473 11213 23032 22033 12872 7486 4655 4768 5066 3025 -610 
8889 10081 -1624 2912 1744 1082 -3192 -3475 -797 -779 -4316 -7810 -9162 -7218 -3132 -2848 -4956 -5598 -3991 -2579 -1350 609 -2999 -11282 -18948 -17080 -17914 2933 -1440 -15356 -32817 5032 995 4299 4519 -5894 -3466 -5050 -4496 -4329 -5231 -7738 -9211 -9636 -6720 -6130 -17522 -24227 -17526 -13255 13105 16532 20918 10676 9344 8599 5636 5456 4461 2027 
6994 14625 4865 7286 2899 3501 2304 -3530 -3249 -1470 -1115 -3283 -5438 -5064 -3979 -2082 -3952 -5736 -5562 -4224 -3287 -3892 -4126 -9148 -19873 -19386 -14078 -7301 15037 15327 -31659 -5976 137 2478 4173 -4545 -4846 -5349 -6272 -4918 -5491 -7148 -7886 -7662 -7447 -7631 -14119 -13763 -11492 -13383 1315 9261 25686 23229 15455 11384 7679 6864 6379 4587 
3726 -2130 -1410 16582 13702 8306 5646 5076 -127 -1106 -1880 -3019 -2398 -3528 -3543 -2440 -1564 -2596 -3392 -3131 -3107 -3263 -958 -2771 -14782 -21966 -22711 -22222 2996 18267 -9613 2197 7889 7152 5591 36 -6216 -5892 -6133 -5647 -6016 -6739 -7782 -8043 -9183 -4893 -7711 -21275 -25447 -18624 -11130 -924 13267 15240 16905 10414 9228 5500 -511 789 
-22492 -22861 2731 -6898 9010 15716 12975 2057 4615 1854 465 -265 -2019 -2739 380 -393 -765 -1158 -2412 -2551 -973 541 -1084 -1447 -6930 -14574 -22017 -20241 -13096 -6144 -16587 -2015 4583 4273 3855 -85 -6253 -5227 -5687 -4535 -4221 -4842 -6932 -8887 -10618 -11008 -11561 -16407 -11762 -13163 -10377 -4266 2493 8572 26569 14325 9269 5782 -1619 -3066 
-10986 -3783 -10936 -4006 11446 8100 19904 13437 5243 1195 -80 -722 -5081 -6466 -2792 -303 183 -405 -2075 -3178 -3048 -2029 200 -1181 -6428 -12035 -16134 -17217 -13033 -4398 -3979 2268 6379 888 1839 -1521 -5713 -4457 -5429 -2822 -2517 -3610 -4909 -7165 -9326 -11454 -12581 -15056 -17713 -11569 1066 4509 -9360 -1537 22615 20687 12340 9219 3705 -1566 
2376 -3731 -13741 6580 7432 7680 1467 18898 13112 6154 -2391 -5561 -4315 -4877 -5902 -3156 -818 -1505 -2495 -3279 -4276 -3449 7 310 -2471 -6070 -9796 -10692 -12323 -8462 -1550 6681 9676 3570 1640 -530 -4975 -4617 -3167 -1909 -2046 -3006 -4265 -6575 -8071 -9655 -9544 -8519 -15879 -15549 -6137 -4407 -12243 -10727 2009 19388 19261 7105 2201 5238 
-10172 -2907 4860 -22725 -13471 18469 -8786 -6735 11173 10883 1952 -3578 -2108 -1507 -2135 -2548 -2276 -2479 -2786 -3200 -2977 -1229 -362 1990 1839 -838 -4103 -7084 -13546 -15326 -9627 -4165 -547 -2048 -1955 -2175 -5477 -3633 -1556 -7 -789 -2429 -4547 -7233 -7334 -7860 -7614 -5384 -12390 -15913 -11432 -11492 -10491 -10898 -9856 12613 20588 13219 7145 6794 
-9971 -15502 -7014 -9956 -3385 -35 -4200 -575 1342 7300 4618 276 -2792 -3509 -1877 -3129 -3733 -3364 -2552 -2106 -1096 -1465 -3550 -2798 -1200 -200 -149 -2142 -8342 -12115 -8480 -6283 -3377 -2771 -3460 -5162 -5872 -3413 -1589 564 287 -2254 -4994 -7063 -5485 -5527 -5707 -5920 -9026 -12814 -13564 -14377 -10514 -8486 -9512 515 11747 22325 21036 8707 
-13485 -15740 -7965 -883 -6345 1426 11227 8547 1280 4597 4121 2106 -1591 -2672 -4994 -6262 -6155 -4721 -2829 -950 -590 -442 -4113 -5396 -4934 -1708 361 666 -2121 -4396 -3621 -3813 -2352 -2466 -5257 -6511 -4572 -3036 143 1233 761 -2252 -5402 -7464 -5935 -3630 -2060 -6602 -6379 -6948 -10284 -10882 -10702 -9095 -8303 -8536 -3007 15512 26959 15853 
8294 7581 7297 7450 7830 7750 7611 6278 5309 4966 5295 5643 5725 5557 5990 6747 7192 5911 4396 3994 3866 3293 3732 4630 5406 4122 4873 6563 6600 5537 2372 -34 1259 4681 7765 8875 8089 4679 5695 9092 8407 6973 6306 6594 7493 8034 6826 6150 6723 6991 6811 7411 3828 3896 3898 7344 15172 12384 7632 8918 
8511 8155 7819 7792 7917 7431 7169 6177 5476 5346 5972 6133 5953 5915 5864 5979 6889 5899 4799 4542 5138 4594 5296 6276 6550 5435 5853 6489 5265 5289 4644 2531 2163 4849 7901 8194 5995 4383 6210 9069 8639 7973 7499 7079 6775 6037 5603 5277 5965 5675 5520 6487 9709 -616 -2810 8224 13698 6494 1203 907 
8566 8253 8042 7816 7833 7319 6827 5609 5518 5477 5916 6099 5588 5166 5109 5611 6343 6053 5616 5695 6098 5278 5813 7517 8008 7128 7051 6278 5109 4833 5780 5682 5617 5763 6285 6791 6074 5134 5638 7252 6966 7444 7320 7009 6484 6323 6213 6313 6503 5172 4212 4891 5998 2453 -1385 1445 2759 17 3206 2640 
8854 8761 8575 8007 7748 6691 6413 6227 6313 6303 6740 6839 6482 5447 4990 5453 6242 6467 6356 6032 5286 4508 5620 7533 7453 7199 6779 5413 5020 4725 5680 6956 6513 4298 5819 9351 8815 7252 7645 8679 6320 6387 5769 4608 3487 4019 5169 5822 6545 4194 2683 3219 1111 740 2611 2361 -1562 -1433 7862 9876 
9122 8515 8181 7357 6687 6182 6361 6940 7067 6917 7138 7383 7053 6256 5734 6057 6896 7473 7818 7120 5582 4991 5886 7113 6987 6777 5161 3017 3448 5359 6617 6106 5382 4711 7942 10241 8352 6403 7184 7095 3895 3604 3291 3404 3121 4004 5067 5535 5138 2566 2159 4029 4494 -2634 -5111 1185 8615 7890 5945 1557 
9315 8567 7599 6494 5928 5799 6500 6611 6051 6203 6817 6998 6677 6728 6730 6409 6946 8142 8650 7185 5259 5041 5935 6769 6813 6777 4035 1687 3007 6189 7325 4829 3071 7422 10696 6915 2790 4220 5046 3449 2236 1524 2336 3962 5785 6661 7384 6717 4543 522 610 3298 1000 -333 2255 4509 3637 833 431 -3190 
8390 7279 6353 5360 5213 5735 6045 5330 3960 4381 5247 5880 6163 6374 6247 5921 6533 7238 6628 5010 3636 4840 5662 5825 5496 4744 3302 3271 5738 5998 5643 6638 7380 8436 8212 7027 3366 2868 3585 3173 2918 3434 5457 6177 6829 6896 4754 1498 69 -1772 370 1859 -2099 -6641 -4630 -1293 -2581 -7097 -11048 -13517 
8311 7710 7148 6601 6665 7109 6774 5351 4982 5432 6442 6972 7210 6866 5953 5357 5837 6129 6239 5235 3721 4098 4395 3843 4736 5914 5388 5149 6711 8398 5206 1579 3575 6328 3030 -1415 154 2231 4014 4842 5215 5381 5089 4249 3295 4774 5499 3041 815 -2502 -3812 -6103 -11155 -14684 -12301 -11349 -13457 -11983 -11966 -11575 
8192 7656 7510 7445 7428 7117 6666 6064 6568 6998 7299 6990 6247 5547 5063 5330 5851 5692 5390 5420 5666 5182 4505 3768 4583 4854 4960 4853 5056 5931 6238 5928 5597 3833 1673 1093 2205 3278 3621 3855 4549 5647 5135 2504 1740 702 -1449 -5109 -5438 -7181 -7147 -9537 -13893 -14667 -13276 -13286 -15551 -15641 -14001 -13732 
8441 7717 7482 7298 7309 6664 6465 6548 6897 6930 7108 6940 6073 5155 4902 4862 4401 4471 4698 4708 4952 4744 4604 5331 7107 6642 5605 4724 5295 5746 6505 6443 4654 1873 1239 2625 4132 3686 2503 2392 2129 2755 1376 -1427 -3522 -4004 -5434 -8952 -9171 -11479 -11373 -12594 -15681 -15338 -14298 -14323 -15544 -15693 -15123 -14999 
7858 7165 6649 6412 6594 6069 5902 5484 5314 5487 5794 5955 6127 6102 5557 4813 4473 4437 4735 5365 5241 4790 5403 6827 7804 6890 5997 5520 5898 5992 6128 5906 3488 2088 2466 4089 4039 2533 673 -270 -2316 -2609 -4039 -6638 -8581 -9283 -9585 -12643 -12778 -14984 -14853 -15284 -15985 -15863 -15712 -16610 -17322 -17255 -16683 -17191 
7556 6720 6338 6321 6554 6073 5416 4285 3842 4208 4953 5184 5275 5738 6147 6163 6593 6779 6598 6489 7034 5984 5263 5160 5299 5179 5146 5544 5513 5373 4982 4605 3617 4498 5355 4458 2352 617 -959 -3007 -6807 -7778 -9334 -11394 -11589 -13039 -14387 -16972 -16653 -17110 -15969 -15503 -16100 -16552 -16828 -17620 -17432 -17443 -17191 -17619 
7751 7184 6867 6671 6913 6632 6145 4660 4549 4641 5312 4949 4113 2547 4223 7301 7544 7171 7514 7343 6490 5539 4368 3723 3769 4144 5025 5455 4688 3143 2413 2628 2487 3154 2619 597 -1522 -2317 -3859 -6594 -9673 -10512 -11800 -13335 -13371 -15105 -17172 -17781 -15687 -15032 -14820 -16029 -17368 -17081 -17479 -18672 -18243 -17830 -18018 -19009 
7997 7681 7317 7380 7231 6368 5511 4844 5486 5632 6100 5335 3692 1468 2558 7245 7370 7430 7637 6980 4737 3701 3715 3208 3127 3144 3889 4589 3100 -119 -1915 -291 847 -1042 -4107 -4986 -5128 -5397 -7214 -9016 -10439 -10863 -12406 -13706 -13876 -14672 -16542 -17527 -15969 -13897 -14309 -17993 -20414 -19821 -18658 -20049 -20260 -19536 -19267 -20346 
8036 7897 7565 7175 6811 6040 6010 5828 6797 6552 6216 4144 806 1401 5309 8856 6559 8967 9930 7539 5414 4252 3788 2437 1665 268 89 -371 -3031 -4231 -3342 -2923 -5838 -8651 -8099 -6618 -7013 -9305 -10226 -9859 -10901 -11789 -13465 -15070 -16309 -18333 -20039 -20842 -21108 -19999 -20267 -21400 -19502 -19996 -22361 -23466 -21264 -20875 -21073 -21739 
8753 8433 8006 7681 7560 6574 5946 5451 5733 5346 5119 4703 5026 6081 7534 9515 8707 10820 10049 6792 4572 4368 3056 313 -202 645 2190 -562 -7179 -10819 -9889 -7618 -8348 -9112 -8928 -8743 -9897 -11201 -11146 -10676 -12290 -13834 -15429 -17304 -16825 -16631 -19147 -22630 -22784 -20660 -19839 -20964 -23289 -23942 -23406 -22891 -22556 -23742 -24044 -23477 
9389 9401 9226 8405 8040 7346 6707 6314 6688 6479 5986 4936 4030 6463 7458 8663 10105 12058 9664 5809 4181 3658 2356 244 1421 1163 -2499 -10435 -17067 -15606 -11044 -10236 -11221 -10640 -8809 -9023 -11384 -12197 -11884 -12088 -14536 -16379 -18761 -20869 -22888 -22635 -22121 -22456 -21639 -21458 -21257 -21469 -21554 -23854 -24657 -24313 -24899 -24910 -24160 -23337 
10001 9899 9882 9144 8476 7561 6934 6804 7291 7244 7534 7135 5532 6175 6711 7526 8852 8187 5753 3695 4310 3789 1931 -229 -1096 -5440 -12194 -19479 -22699 -19047 -14063 -12788 -11405 -11527 -10492 -10493 -12645 -13961 -14234 -15845 -17775 -19946 -21567 -23226 -24324 -24820 -23745 -22194 -20638 -21700 -23094 -24208 -24348 -24482 -24574 -25426 -26597 -25129 -22652 -22024 
10808 10624 10236 9671 8870 8211 7494 7331 7363 7830 8594 8485 7612 6835 6950 6624 5644 3443 1979 2262 3248 1475 -2167 -6823 -11288 -17411 -21034 -20751 -18907 -18144 -17679 -16411 -13329 -14227 -14751 -14433 -15359 -17310 -19365 -21620 -22453 -23418 -24145 -24166 -24176 -24376 -23363 -21670 -21028 -22309 -24402 -25734 -26072 -25363 -25517 -26443 -26329 -23703 -21380 -22008 
11257 10968 10493 10007 9398 9133 7975 7459 7281 8260 9364 8997 8480 7961 7525 6218 3957 1944 1086 998 -287 -5172 -10797 -16210 -20648 -23324 -20940 -17058 -15469 -20175 -22116 -19170 -15715 -17111 -17671 -17400 -18537 -21774 -24237 -25183 -24192 -24667 -24451 -24171 -23554 -23309 -22637 -22478 -21924 -22868 -23664 -25083 -25422 -25708 -25953 -26127 -24936 -22842 -21872 -23528 
11572 11125 10669 10271 9811 9706 8866 8012 7372 7923 9296 9193 8360 7234 7752 6227 4008 2346 1516 -1169 -6397 -15801 -22625 -24417 -23868 -21428 -17802 -17247 -20257 -25502 -25604 -20497 -17655 -18666 -19360 -19304 -21220 -24643 -25923 -25154 -23950 -23845 -23353 -23353 -23741 -23916 -23720 -23607 -22846 -23438 -23756 -24537 -25644 -26342 -26474 -25390 -24592 -23650 -23595 -25052 
11578 11600 11006 10122 9960 10144 9220 8272 7720 8113 8949 8532 7238 6326 5942 5591 4103 2566 -557 -6127 -15886 -25661 -31351 -28926 -24144 -20308 -18310 -21134 -25629 -27856 -24080 -19097 -19482 -20177 -20146 -20696 -22756 -26223 -25914 -23763 -23614 -23821 -23333 -23702 -24201 -25146 -25251 -25133 -24143 -24549 -24736 -26014 -27199 -26941 -25158 -24178 -25036 -25345 -25515 -25889 
11949 11811 11162 10469 9958 10434 9651 8163 7336 8210 8845 8278 6523 4731 3231 3707 3660 1545 -6827 -13044 -27016 -33760 -32369 -25952 -25358 -23909 -22652 -24169 -24940 -24289 -22082 -19956 -21213 -20811 -20921 -22618 -24706 -25612 -24672 -24189 -25532 -25583 -24784 -25000 -25251 -25462 -24886 -24588 -24153 -24717 -25505 -26629 -26729 -25830 -25360 -25209 -26063 -26046 -26167 -26504 
11769 11813 11069 10539 10542 10158 8576 7770 8157 9156 9234 7987 6144 1208 -1751 14 -559 -7348 -15782 -23845 -34214 -36303 -31051 -25979 -27153 -27583 -27233 -27692 -27982 -25123 -21310 -19516 -21362 -21682 -21843 -23040 -25121 -25252 -24410 -25070 -27077 -26542 -25264 -25005 -24719 -25531 -25364 -25133 -24764 -25225 -26250 -27354 -27701 -25498 -23605 -23804 -25803 -27635 -28945 -29373 
11522 11680 11405 10701 10186 10055 8809 8078 8867 8747 8091 6712 2403 610 -629 -4088 -11988 -19269 -23098 -28909 -36326 -33722 -28276 -27217 -27886 -28611 -28713 -28310 -27363 -25085 -21758 -20093 -21439 -21473 -21438 -22934 -23864 -23991 -24372 -26535 -28040 -27377 -25939 -25142 -25456 -26162 -25888 -24752 -24542 -25204 -26200 -26647 -26653 -26060 -25783 -26839 -28314 -29944 -30716 -30626 
11624 11731 11371 10737 10174 9596 8861 8636 8161 6880 6472 6489 4214 -1751 -9103 -21468 -30208 -30926 -29153 -34797 -39111 -33556 -27541 -27496 -27636 -27951 -27784 -27692 -27394 -25621 -22859 -21211 -22523 -21835 -21491 -22610 -24381 -24795 -25822 -27547 -27946 -27164 -25787 -24947 -25374 -26086 -25326 -23966 -24407 -25141 -25871 -26000 -26061 -26072 -27164 -29220 -30522 -31637 -31693 -31431 
11759 12103 11565 10415 9867 9755 8793 7882 7143 5837 6591 7356 3011 -8049 -19998 -32963 -32916 -31402 -31358 -34876 -35668 -30519 -27573 -26437 -26268 -26261 -26209 -26405 -26829 -26061 -23855 -22596 -22947 -21660 -20867 -22177 -24215 -25814 -26715 -27670 -27488 -26801 -25564 -25126 -25964 -25943 -24998 -23839 -25512 -25987 -25841 -25728 -26251 -26970 -28306 -30177 -30897 -32492 -33131 -33449 
11882 11526 11306 10306 9579 9438 9305 7671 6412 5142 6532 5653 -4508 -19153 -29730 -34612 -28722 -30932 -30304 -21069 -24999 -24459 -27399 -26556 -24910 -24664 -24387 -24843 -25617 -25757 -24529 -22812 -22513 -20628 -20309 -21887 -23739 -25919 -26995 -27542 -27265 -26625 -25367 -25436 -26035 -25814 -25246 -25483 -27189 -26811 -26581 -26197 -26810 -27595 -29108 -30781 -32135 -34501 -35926 -35864 
11741 11115 9995 9009 8927 9738 9736 8606 7563 4383 4465 -974 -16575 -31892 -37651 -36042 -31240 -26948 -23377 -12405 -26505 -25470 -28086 -27257 -25319 -24535 -24892 -25409 -26280 -25971 -25338 -23684 -22986 -21036 -20744 -22417 -24744 -26246 -26827 -27046 -26816 -26001 -25339 -25877 -26638 -26459 -25701 -26107 -27361 -27310 -27072 -26555 -26604 -28083 -30210 -32914 -35294 -37266 -37351 -36555 
10483 9863 8796 8230 8913 9633 10463 8956 7442 3049 -525 -10495 -29108 -38261 -35597 -29248 -26208 -14716 -7831 -13816 -43503 -36340 -30412 -27969 -26425 -25658 -25780 -26703 -27284 -26337 -25146 -23986 -23703 -22294 -22496 -23932 -26370 -26537 -25546 -25422 -25954 -25475 -24926 -25778 -26608 -26510 -26349 -26693 -26078 -25998 -26108 -26684 -27290 -28847 -31599 -34961 -37327 -38146 -36418 -34438 
8998 9077 9006 9156 9560 9503 9565 8568 5868 4131 -4606 -23907 -42345 -34839 -25725 -23398 -21261 -21739 -36981 -48446 -53244 -37654 -30270 -27541 -25836 -26372 -26647 -26046 -25582 -24585 -24163 -23764 -22744 -21315 -21849 -23474 -24475 -23800 -23881 -24708 -25297 -25412 -25627 -26386 -27670 -26941 -26018 -26862 -26420 -25147 -24461 -26084 -28461 -31283 -33611 -36479 -36832 -36076 -35269 -35080 
7990 9213 10774 11668 11424 10079 9173 7576 5640 2590 -12430 -32214 -45982 -34497 -24934 -23979 -30821 -17895 -16458 -30645 -41592 -35889 -29837 -27792 -27694 -27685 -26672 -26534 -26514 -25785 -24727 -24778 -23366 -23003 -23177 -24008 -24887 -24180 -23479 -24846 -25593 -26042 -26374 -27173 -27660 -27931 -28504 -28248 -24458 -23463 -25575 -29664 -31960 -33395 -34634 -36396 -37265 -37472 -35989 -32847 
7136 9810 12453 13497 12843 9737 5831 4777 3101 1738 -22014 -42327 -41957 -27183 -25019 -27937 -33199 -34385 -31997 -29039 -27050 -27528 -27382 -26988 -27854 -27523 -26591 -26804 -26563 -25487 -24638 -24619 -22382 -21519 -21978 -22969 -23536 -24889 -26088 -27063 -26929 -27921 -28229 -28319 -28614 -28823 -28916 -28732 -25121 -26507 -29736 -32298 -32412 -32562 -33984 -36008 -36436 -36669 -36738 -34287 
6337 9008 13320 14763 13350 9224 3527 2132 -604 -8023 -31732 -42363 -32766 -21838 -24190 -27755 -32822 -32934 -30602 -28174 -26931 -26760 -27377 -27464 -27452 -25737 -26279 -27607 -26202 -23623 -23198 -24170 -22481 -22081 -22544 -23728 -24935 -27155 -28337 -28599 -28301 -28977 -29255 -28894 -28998 -30654 -30209 -28052 -25534 -30131 -33884 -33488 -30801 -30066 -32017 -34994 -35920 -35901 -36269 -34159 
6223 8750 12481 13324 11860 7051 374 -1169 -7434 -22322 -38686 -36295 -23626 -21294 -25179 -26847 -31193 -31689 -30373 -28685 -28057 -26920 -27410 -27717 -26290 -23899 -25293 -26934 -24485 -22124 -22216 -23574 -23591 -23674 -24481 -25574 -26283 -26577 -26086 -25810 -27162 -28224 -27995 -28169 -28743 -31739 -31373 -28591 -27142 -31171 -33082 -31093 -28345 -28018 -30614 -33569 -34411 -34143 -34465 -32686 
7245 8880 11505 11128 8627 3317 -2357 -5421 -16939 -34601 -37961 -27997 -20236 -25870 -27073 -27357 -29569 -30548 -30174 -29303 -27662 -25751 -26613 -27444 -24953 -23220 -25423 -26081 -22564 -21386 -22816 -23307 -23590 -24218 -24451 -24021 -22942 -19779 -18687 -21113 -24419 -25477 -26317 -26793 -28360 -31696 -31756 -28590 -28153 -28799 -28301 -27062 -26937 -28317 -30453 -31992 -31344 -31395 -31903 -31308 
9895 9922 10682 8112 4370 565 -3866 -8950 -22532 -36516 -30909 -24001 -23637 -31399 -26727 -25807 -26361 -28800 -30043 -29875 -28604 -25276 -26813 -26663 -22625 -23549 -23342 -22359 -22382 -22596 -23691 -23028 -22383 -22515 -22616 -20891 -18087 -13727 -11601 -15124 -19600 -22657 -27016 -25329 -27620 -30539 -25361 -23620 -27187 -26712 -24858 -25384 -27025 -29064 -30045 -30073 -28421 -29324 -30623 -30547 
10570 9978 6903 381 1107 -2721 -12888 -18087 -27443 -31896 -22026 -24764 -29960 -33158 -23378 -24136 -24953 -28289 -30183 -30561 -29748 -27351 -25551 -24878 -22334 -22589 -19357 -19271 -22685 -24702 -24992 -23351 -21420 -21108 -19769 -17810 -16392 -15004 -14521 -13202 -10651 -16487 -22862 -25178 -27582 -24706 -15334 -19007 -26443 -26670 -24753 -25652 -27565 -29972 -29639 -27645 -25927 -27427 -29614 -30779 
10341 4894 3450 -1548 -13245 -14073 -24669 -25822 -23980 -24331 -20427 -28782 -31362 -32333 -23757 -27595 -29701 -31386 -31447 -30411 -27796 -26978 -24795 -21755 -20615 -21401 -12044 -15292 -22556 -23448 -25613 -24689 -21093 -23109 -22492 -18062 -17797 -14610 -11907 -6843 -7181 -16866 -16657 -19904 -22299 -9437 5323 -19912 -31521 -28656 -25228 -25896 -25509 -26775 -28360 -26874 -25688 -27495 -29659 -30611 
10331 11 -7076 -3069 -26168 -42618 -42142 -22646 -15848 -14873 -16834 -29980 -31121 -31268 -25357 -28244 -28219 -29400 -29974 -29647 -28933 -23366 -21389 -20942 -17981 -19651 -17911 -16773 -20102 -24461 -27950 -23623 -22326 -21203 -18706 -12209 -17073 -14314 -12866 245 -1658 -10803 -17566 -13867 -6000 5321 -3753 -33076 -29606 -25022 -22389 -24246 -26554 -28283 -28027 -25060 -25062 -25823 -27293 -28415 
-3903 1624 350 -34909 -58650 -41057 -16861 -5255 2285 -10950 -21773 -29974 -27981 -28340 -25681 -27780 -27554 -29323 -30544 -29749 -24242 -24498 -17935 -14502 -16301 -15052 -13029 -17927 -18367 -18177 -22025 -19980 -20021 -18841 -18781 -12833 -15440 450 11347 14297 -4641 -21525 -14672 -5903 3270 15362 -3480 -28634 -26349 -26029 -24300 -23690 -22898 -24466 -26272 -25244 -25354 -26131 -26958 -27188 
